{"learner":{"attributes":{"scikit_learn":"{\"_estimator_type\": \"regressor\"}"},"feature_names":[],"feature_types":[],"gradient_booster":{"model":{"gbtree_model_param":{"num_parallel_tree":"1","num_trees":"200"},"iteration_indptr":[0,1,2,3,4,5,6,7,8,9,10,11,12,13,14,15,16,17,18,19,20,21,22,23,24,25,26,27,28,29,30,31,32,33,34,35,36,37,38,39,40,41,42,43,44,45,46,47,48,49,50,51,52,53,54,55,56,57,58,59,60,61,62,63,64,65,66,67,68,69,70,71,72,73,74,75,76,77,78,79,80,81,82,83,84,85,86,87,88,89,90,91,92,93,94,95,96,97,98,99,100,101,102,103,104,105,106,107,108,109,110,111,112,113,114,115,116,117,118,119,120,121,122,123,124,125,126,127,128,129,130,131,132,133,134,135,136,137,138,139,140,141,142,143,144,145,146,147,148,149,150,151,152,153,154,155,156,157,158,159,160,161,162,163,164,165,166,167,168,169,170,171,172,173,174,175,176,177,178,179,180,181,182,183,184,185,186,187,188,189,190,191,192,193,194,195,196,197,198,199,200],"tree_info":[0,0,0,0,0,0,0,0,0,0,0,0,0,0,0,0,0,0,0,0,0,0,0,0,0,0,0,0,0,0,0,0,0,0,0,0,0,0,0,0,0,0,0,0,0,0,0,0,0,0,0,0,0,0,0,0,0,0,0,0,0,0,0,0,0,0,0,0,0,0,0,0,0,0,0,0,0,0,0,0,0,0,0,0,0,0,0,0,0,0,0,0,0,0,0,0,0,0,0,0,0,0,0,0,0,0,0,0,0,0,0,0,0,0,0,0,0,0,0,0,0,0,0,0,0,0,0,0,0,0,0,0,0,0,0,0,0,0,0,0,0,0,0,0,0,0,0,0,0,0,0,0,0,0,0,0,0,0,0,0,0,0,0,0,0,0,0,0,0,0,0,0,0,0,0,0,0,0,0,0,0,0,0,0,0,0,0,0,0,0,0,0,0,0,0,0,0,0,0,0],"trees":[{"base_weights":[1.4247644E0,-2.554944E1,3.44426E1,-4.8349E1,-1.3740761E1,1.6129812E1,5.9017796E1,-3.294701E0,-2.0232942E0,-1.2429367E0,-4.1268834E-1,5.3066134E-1,1.3323797E0,2.4158752E0,4.5190787E0],"categories":[],"categories_nodes":[],"categories_segments":[],"categories_sizes":[],"default_left":[0,0,0,0,0,0,0,0,0,0,0,0,0,0,0],"id":0,"left_children":[1,3,5,7,9,11,13,-1,-1,-1,-1,-1,-1,-1,-1],"loss_changes":[4.2392916E5,6.987459E4,9.535667E4,9.643109E3,1.0409559E4,6.9119434E3,2.617275E4,0E0,0E0,0E0,0E0,0E0,0E0,0E0,0E0],"parents":[2147483647,0,0,1,1,2,2,3,3,4,4,5,5,6,6],"right_children":[2,4,6,8,10,12,14,-1,-1,-1,-1,-1,-1,-1,-1],"split_conditions":[6.008679E-2,-8.145354E-1,9.3470895E-1,-1.4118383E0,-4.732194E-1,4.8673174E-1,1.7879988E0,-3.294701E0,-2.0232942E0,-1.2429367E0,-4.1268834E-1,5.3066134E-1,1.3323797E0,2.4158752E0,4.5190787E0],"split_indices":[1159,1159,1159,1159,1159,1159,1159,0,0,0,0,0,0,0,0],"split_type":[0,0,0,0,0,0,0,0,0,0,0,0,0,0,0],"sum_hessian":[4.74E2,2.61E2,2.13E2,8.8E1,1.73E2,1.23E2,9E1,2.5E1,6.3E1,5.6E1,1.17E2,8.2E1,4.1E1,6.9E1,2.1E1],"tree_param":{"num_deleted":"0","num_feature":"1177","num_nodes":"15","size_leaf_vector":"1"}},{"base_weights":[7.949297E-1,-2.5167929E1,3.259252E1,-4.637282E1,-1.319206E1,1.9835316E1,6.795206E1,-3.119716E0,-1.8807064E0,-1.1617446E0,-3.4606397E-1,6.284544E-1,1.7203137E0,2.942334E0,5.397606E0],"categories":[],"categories_nodes":[],"categories_segments":[],"categories_sizes":[],"default_left":[0,0,0,0,0,0,0,0,0,0,0,0,0,0,0],"id":1,"left_children":[1,3,5,7,9,11,13,-1,-1,-1,-1,-1,-1,-1,-1],"loss_changes":[3.8387844E5,6.4398703E4,9.2929734E4,1.0563203E4,1.0230293E4,1.5978309E4,1.3679234E4,0E0,0E0,0E0,0E0,0E0,0E0,0E0,0E0],"parents":[2147483647,0,0,1,1,2,2,3,3,4,4,5,5,6,6],"right_children":[2,4,6,8,10,12,14,-1,-1,-1,-1,-1,-1,-1,-1],"split_conditions":[6.008679E-2,-8.145354E-1,1.1910169E0,-1.390506E0,-4.7314832E-1,7.000542E-1,3.0435781E0,-3.119716E0,-1.8807064E0,-1.1617446E0,-3.4606397E-1,6.284544E-1,1.7203137E0,2.942334E0,5.397606E0],"split_indices":[1159,1159,1158,1159,1158,1159,1158,0,0,0,0,0,0,0,0],"split_type":[0,0,0,0,0,0,0,0,0,0,0,0,0,0,0],"sum_hessian":[4.63E2,2.55E2,2.08E2,9.1E1,1.64E2,1.54E2,5.4E1,3E1,6.1E1,6.2E1,1.02E2,1.04E2,5E1,4.6E1,8E0],"tree_param":{"num_deleted":"0","num_feature":"1177","num_nodes":"15","size_leaf_vector":"1"}},{"base_weights":[-6.5654963E-1,-2.4014435E1,2.8239492E1,-4.4778095E1,-1.3375259E1,1.45399685E1,4.9191288E1,-2.8482676E0,-1.7409699E0,-1.137934E0,-4.11849E-1,3.9537236E-1,1.1017789E0,2.0063484E0,3.554634E0],"categories":[],"categories_nodes":[],"categories_segments":[],"categories_sizes":[],"default_left":[0,0,0,0,0,0,0,0,0,0,0,0,0,0,0],"id":2,"left_children":[1,3,5,7,9,11,13,-1,-1,-1,-1,-1,-1,-1,-1],"loss_changes":[3.185798E5,5.7058125E4,5.9848E4,8.696984E3,8.201883E3,6.238961E3,1.3624531E4,0E0,0E0,0E0,0E0,0E0,0E0,0E0,0E0],"parents":[2147483647,0,0,1,1,2,2,3,3,4,4,5,5,6,6],"right_children":[2,4,6,8,10,12,14,-1,-1,-1,-1,-1,-1,-1,-1],"split_conditions":[3.875454E-2,-8.5719985E-1,9.3470895E-1,-1.3051771E0,-4.732194E-1,3.800705E-1,1.6813376E0,-2.8482676E0,-1.7409699E0,-1.137934E0,-4.11849E-1,3.9537236E-1,1.1017789E0,2.0063484E0,3.554634E0],"split_indices":[1159,1159,1159,1159,1159,1159,1159,0,0,0,0,0,0,0,0],"split_type":[0,0,0,0,0,0,0,0,0,0,0,0,0,0,0],"sum_hessian":[4.7E2,2.6E2,2.1E2,8.7E1,1.73E2,1.28E2,8.2E1,3.7E1,5E1,6E1,1.13E2,6.9E1,5.9E1,6E1,2.2E1],"tree_param":{"num_deleted":"0","num_feature":"1177","num_nodes":"15","size_leaf_vector":"1"}},{"base_weights":[1.0660052E-1,-2.0406212E1,3.440799E1,-4.251186E1,-9.525101E0,2.4923342E1,7.0391266E1,-3.065416E0,-1.7488695E0,-8.707289E-1,-9.5701665E-3,7.451194E-1,1.7799854E0,2.7814577E0,4.668261E0],"categories":[],"categories_nodes":[],"categories_segments":[],"categories_sizes":[],"default_left":[0,0,0,0,0,0,0,0,0,0,0,0,0,0,0],"id":3,"left_children":[1,3,5,7,9,11,13,-1,-1,-1,-1,-1,-1,-1,-1],"loss_changes":[3.3843872E5,7.19958E4,5.967758E4,1.1876125E4,1.494518E4,1.4875656E4,7.3545E3,0E0,0E0,0E0,0E0,0E0,0E0,0E0,0E0],"parents":[2147483647,0,0,1,1,2,2,3,3,4,4,5,5,6,6],"right_children":[2,4,6,8,10,12,14,-1,-1,-1,-1,-1,-1,-1,-1],"split_conditions":[2.3074476E-1,-7.932031E-1,1.5320119E0,-1.35233E0,-2.1723244E-1,7.2002673E-1,2.384192E0,-3.065416E0,-1.7488695E0,-8.707289E-1,-9.5701665E-3,7.451194E-1,1.7799854E0,2.7814577E0,4.668261E0],"split_indices":[1159,1159,1159,1158,1159,1158,1158,0,0,0,0,0,0,0,0],"split_type":[0,0,0,0,0,0,0,0,0,0,0,0,0,0,0],"sum_hessian":[4.79E2,3E2,1.79E2,9.8E1,2.02E2,1.43E2,3.6E1,2.6E1,7.2E1,1.09E2,9.3E1,7.5E1,6.8E1,2.4E1,1.2E1],"tree_param":{"num_deleted":"0","num_feature":"1177","num_nodes":"15","size_leaf_vector":"1"}},{"base_weights":[1.7058602E-1,-1.8452663E1,3.3670048E1,-3.518696E1,-5.3958774E0,2.2082996E1,6.1964275E1,-2.4718077E0,-1.3473268E0,-5.9629107E-1,1.0715828E-1,6.966881E-1,1.5202296E0,2.5862234E0,4.3564773E0],"categories":[],"categories_nodes":[],"categories_segments":[],"categories_sizes":[],"default_left":[0,0,0,0,0,0,0,0,0,0,0,0,0,0,0],"id":4,"left_children":[1,3,5,7,9,11,13,-1,-1,-1,-1,-1,-1,-1,-1],"loss_changes":[3.0382153E5,6.8199414E4,5.5676984E4,1.47543125E4,8.739187E3,8.053176E3,8.377641E3,0E0,0E0,0E0,0E0,0E0,0E0,0E0,0E0],"parents":[2147483647,0,0,1,1,2,2,3,3,4,4,5,5,6,6],"right_children":[2,4,6,8,10,12,14,-1,-1,-1,-1,-1,-1,-1,-1],"split_conditions":[2.7340928E-1,-6.0121286E-1,1.2760249E0,-1.1985158E0,-2.2195359E-1,6.5722805E-1,2.384192E0,-2.4718077E0,-1.3473268E0,-5.9629107E-1,1.0715828E-1,6.966881E-1,1.5202296E0,2.5862234E0,4.3564773E0],"split_indices":[1159,1159,1159,1159,1158,1158,1158,0,0,0,0,0,0,0,0],"split_type":[0,0,0,0,0,0,0,0,0,0,0,0,0,0,0],"sum_hessian":[4.85E2,3.12E2,1.73E2,1.36E2,1.76E2,1.24E2,4.9E1,4.8E1,8.8E1,9.4E1,8.2E1,6.4E1,6E1,3.7E1,1.2E1],"tree_param":{"num_deleted":"0","num_feature":"1177","num_nodes":"15","size_leaf_vector":"1"}},{"base_weights":[6.791577E-1,-2.0720558E1,2.6028013E1,-3.7535538E1,-1.1145744E1,1.5656406E1,5.3770416E1,-2.7563808E0,-1.5899113E0,-9.452236E-1,-3.17804E-1,3.9747405E-1,1.2409061E0,2.3062227E0,4.5986295E0],"categories":[],"categories_nodes":[],"categories_segments":[],"categories_sizes":[],"default_left":[0,0,0,0,0,0,0,0,0,0,0,0,0,0,0],"id":5,"left_children":[1,3,5,7,9,11,13,-1,-1,-1,-1,-1,-1,-1,-1],"loss_changes":[2.6308912E5,4.1924727E4,6.3034953E4,7.8355156E3,6.16017E3,1.1311918E4,1.3283359E4,0E0,0E0,0E0,0E0,0E0,0E0,0E0,0E0],"parents":[2147483647,0,0,1,1,2,2,3,3,4,4,5,5,6,6],"right_children":[2,4,6,8,10,12,14,-1,-1,-1,-1,-1,-1,-1,-1],"split_conditions":[3.875454E-2,-8.185411E-1,1.1266992E0,-1.35233E0,-4.7314832E-1,4.8673174E-1,3.0435781E0,-2.7563808E0,-1.5899113E0,-9.452236E-1,-3.17804E-1,3.9747405E-1,1.2409061E0,2.3062227E0,4.5986295E0],"split_indices":[1159,1158,1159,1158,1158,1159,1158,0,0,0,0,0,0,0,0],"split_type":[0,0,0,0,0,0,0,0,0,0,0,0,0,0,0],"sum_hessian":[4.83E2,2.62E2,2.21E2,9.4E1,1.68E2,1.62E2,5.9E1,2.1E1,7.3E1,6.3E1,1.05E2,8.9E1,7.3E1,5.1E1,8E0],"tree_param":{"num_deleted":"0","num_feature":"1177","num_nodes":"15","size_leaf_vector":"1"}},{"base_weights":[-3.1899762E-1,-1.9972473E1,2.3906538E1,-4.1633575E1,-1.2868274E1,1.2198527E1,4.3511322E1,-2.6940806E0,-1.7057037E0,-1.0572288E0,-3.2475874E-1,3.7583545E-1,1.017887E0,1.6816101E0,2.9020898E0],"categories":[],"categories_nodes":[],"categories_segments":[],"categories_sizes":[],"default_left":[0,0,0,0,0,0,0,0,0,0,0,0,0,0,0],"id":6,"left_children":[1,3,5,7,9,11,13,-1,-1,-1,-1,-1,-1,-1,-1],"loss_changes":[2.28537E5,4.024371E4,4.8818836E4,4.1483203E3,1.0464547E4,5.04217E3,9.531781E3,0E0,0E0,0E0,0E0,0E0,0E0,0E0,0E0],"parents":[2147483647,0,0,1,1,2,2,3,3,4,4,5,5,6,6],"right_children":[2,4,6,8,10,12,14,-1,-1,-1,-1,-1,-1,-1,-1],"split_conditions":[3.875454E-2,-1.0065256E0,9.7122145E-1,-1.646493E0,-4.9455166E-1,4.8673174E-1,1.5960087E0,-2.6940806E0,-1.7057037E0,-1.0572288E0,-3.2475874E-1,3.7583545E-1,1.017887E0,1.6816101E0,2.9020898E0],"split_indices":[1159,1159,1158,1159,1159,1159,1159,0,0,0,0,0,0,0,0],"split_type":[0,0,0,0,0,0,0,0,0,0,0,0,0,0,0],"sum_hessian":[4.78E2,2.64E2,2.14E2,6.4E1,2E2,1.35E2,7.9E1,2.2E1,4.2E1,8.6E1,1.14E2,8.7E1,4.8E1,4.9E1,3E1],"tree_param":{"num_deleted":"0","num_feature":"1177","num_nodes":"15","size_leaf_vector":"1"}},{"base_weights":[-3.3494872E-1,-1.761877E1,2.4370386E1,-3.343976E1,-8.0983E0,1.5170689E1,4.7427284E1,-2.2109706E0,-1.3118324E0,-6.8518096E-1,-6.0828805E-2,4.9699646E-1,1.2821654E0,1.9269581E0,3.2775342E0],"categories":[],"categories_nodes":[],"categories_segments":[],"categories_sizes":[],"default_left":[0,0,0,0,0,0,0,0,0,0,0,0,0,0,0],"id":7,"left_children":[1,3,5,7,9,11,13,-1,-1,-1,-1,-1,-1,-1,-1],"loss_changes":[2.0539062E5,4.235558E4,4.1279562E4,7.070414E3,6.849547E3,7.5786094E3,6.4943906E3,0E0,0E0,0E0,0E0,0E0,0E0,0E0,0E0],"parents":[2147483647,0,0,1,1,2,2,3,3,4,4,5,5,6,6],"right_children":[2,4,6,8,10,12,14,-1,-1,-1,-1,-1,-1,-1,-1],"split_conditions":[6.064051E-2,-7.292064E-1,1.1266992E0,-1.3051771E0,-2.1723244E-1,7.000542E-1,1.9446012E0,-2.2109706E0,-1.3118324E0,-6.8518096E-1,-6.0828805E-2,4.9699646E-1,1.2821654E0,1.9269581E0,3.2775342E0],"split_indices":[1158,1159,1159,1159,1159,1159,1158,0,0,0,0,0,0,0,0],"split_type":[0,0,0,0,0,0,0,0,0,0,0,0,0,0,0],"sum_hessian":[4.79E2,2.82E2,1.97E2,1.05E2,1.77E2,1.42E2,5.5E1,4E1,6.5E1,9.7E1,8E1,9.6E1,4.6E1,3.9E1,1.6E1],"tree_param":{"num_deleted":"0","num_feature":"1177","num_nodes":"15","size_leaf_vector":"1"}},{"base_weights":[1.6277406E-1,-1.6937355E1,2.7046598E1,-3.3295868E1,-7.5368314E0,1.9170631E1,5.462515E1,-2.3689244E0,-1.3852419E0,-6.6979253E-1,-2.1599855E-2,5.394446E-1,1.3759698E0,2.2698543E0,4.1195965E0],"categories":[],"categories_nodes":[],"categories_segments":[],"categories_sizes":[],"default_left":[0,0,0,0,0,0,0,0,0,0,0,0,0,0,0],"id":8,"left_children":[1,3,5,7,9,11,13,-1,-1,-1,-1,-1,-1,-1,-1],"loss_changes":[2.2112219E5,4.495996E4,3.9570656E4,7.1121875E3,7.8201553E3,9.989742E3,6.7652344E3,0E0,0E0,0E0,0E0,0E0,0E0,0E0,0E0],"parents":[2147483647,0,0,1,1,2,2,3,3,4,4,5,5,6,6],"right_children":[2,4,6,8,10,12,14,-1,-1,-1,-1,-1,-1,-1,-1],"split_conditions":[2.3074476E-1,-8.185411E-1,1.5320119E0,-1.4971672E0,-2.1723244E-1,6.8862736E-1,3.0435781E0,-2.3689244E0,-1.3852419E0,-6.6979253E-1,-2.1599855E-2,5.394446E-1,1.3759698E0,2.2698543E0,4.1195965E0],"split_indices":[1159,1158,1159,1159,1159,1158,1158,0,0,0,0,0,0,0,0],"split_type":[0,0,0,0,0,0,0,0,0,0,0,0,0,0,0],"sum_hessian":[4.79E2,2.93E2,1.86E2,1.06E2,1.87E2,1.46E2,4E1,2.8E1,7.8E1,1.02E2,8.5E1,7.4E1,7.2E1,3.2E1,8E0],"tree_param":{"num_deleted":"0","num_feature":"1177","num_nodes":"15","size_leaf_vector":"1"}},{"base_weights":[-1.2841569E-1,-1.4104754E1,2.4371078E1,-2.7607487E1,-4.7017374E0,1.58871975E1,4.695758E1,-1.8716038E0,-1.0165323E0,-5.219652E-1,2.4357105E-2,5.5465454E-1,1.3078452E0,1.8699232E0,3.340923E0],"categories":[],"categories_nodes":[],"categories_segments":[],"categories_sizes":[],"default_left":[0,0,0,0,0,0,0,0,0,0,0,0,0,0,0],"id":9,"left_children":[1,3,5,7,9,11,13,-1,-1,-1,-1,-1,-1,-1,-1],"loss_changes":[1.6401728E5,3.859496E4,3.259607E4,8.1754766E3,5.393734E3,6.011801E3,6.4241484E3,0E0,0E0,0E0,0E0,0E0,0E0,0E0,0E0],"parents":[2147483647,0,0,1,1,2,2,3,3,4,4,5,5,6,6],"right_children":[2,4,6,8,10,12,14,-1,-1,-1,-1,-1,-1,-1,-1],"split_conditions":[2.1763723E-1,-6.301451E-1,1.2224163E0,-1.1558514E0,-1.7456794E-1,9.3470895E-1,1.979989E0,-1.8716038E0,-1.0165323E0,-5.219652E-1,2.4357105E-2,5.5465454E-1,1.3078452E0,1.8699232E0,3.340923E0],"split_indices":[1158,1158,1158,1159,1159,1159,1159,0,0,0,0,0,0,0,0],"split_type":[0,0,0,0,0,0,0,0,0,0,0,0,0,0,0],"sum_hessian":[4.77E2,3.04E2,1.73E2,1.24E2,1.8E2,1.27E2,4.6E1,5.1E1,7.3E1,8.5E1,9.5E1,8.8E1,3.9E1,3.3E1,1.3E1],"tree_param":{"num_deleted":"0","num_feature":"1177","num_nodes":"15","size_leaf_vector":"1"}},{"base_weights":[-1.868241E-2,-1.3689536E1,2.402062E1,-2.6243319E1,-4.267889E0,1.676541E1,4.8631966E1,-1.9087114E0,-1.0190831E0,-4.4686309E-1,7.74729E-2,4.9527726E-1,1.2211354E0,1.9510443E0,3.2795913E0],"categories":[],"categories_nodes":[],"categories_segments":[],"categories_sizes":[],"default_left":[0,0,0,0,0,0,0,0,0,0,0,0,0,0,0],"id":10,"left_children":[1,3,5,7,9,11,13,-1,-1,-1,-1,-1,-1,-1,-1],"loss_changes":[1.6136136E5,3.6908797E4,3.096843E4,8.593227E3,4.903253E3,7.0594727E3,3.9606562E3,0E0,0E0,0E0,0E0,0E0,0E0,0E0,0E0],"parents":[2147483647,0,0,1,1,2,2,3,3,4,4,5,5,6,6],"right_children":[2,4,6,8,10,12,14,-1,-1,-1,-1,-1,-1,-1,-1],"split_conditions":[2.7340928E-1,-6.0121286E-1,1.4680151E0,-1.2838448E0,-2.2195359E-1,7.2002673E-1,2.384192E0,-1.9087114E0,-1.0190831E0,-4.4686309E-1,7.74729E-2,4.9527726E-1,1.2211354E0,1.9510443E0,3.2795913E0],"split_indices":[1159,1159,1159,1159,1158,1158,1158,0,0,0,0,0,0,0,0],"split_type":[0,0,0,0,0,0,0,0,0,0,0,0,0,0,0],"sum_hessian":[4.89E2,3.12E2,1.77E2,1.33E2,1.79E2,1.38E2,3.9E1,4.2E1,9.1E1,9.9E1,8E1,7.4E1,6.4E1,2.7E1,1.2E1],"tree_param":{"num_deleted":"0","num_feature":"1177","num_nodes":"15","size_leaf_vector":"1"}},{"base_weights":[-4.3146268E-2,-1.18421335E1,2.5275812E1,-2.3724785E1,-1.986761E0,1.8830982E1,5.1303288E1,-1.7173532E0,-8.5288376E-1,-3.2648608E-1,1.484121E-1,6.258961E-1,1.2982205E0,2.097812E0,3.6675346E0],"categories":[],"categories_nodes":[],"categories_segments":[],"categories_sizes":[],"default_left":[0,0,0,0,0,0,0,0,0,0,0,0,0,0,0],"id":11,"left_children":[1,3,5,7,9,11,13,-1,-1,-1,-1,-1,-1,-1,-1],"loss_changes":[1.3532892E5,3.613922E4,2.3188852E4,9.328906E3,3.846146E3,4.9439297E3,2.6926719E3,0E0,0E0,0E0,0E0,0E0,0E0,0E0,0E0],"parents":[2147483647,0,0,1,1,2,2,3,3,4,4,5,5,6,6],"right_children":[2,4,6,8,10,12,14,-1,-1,-1,-1,-1,-1,-1,-1],"split_conditions":[3.37406E-1,-5.372161E-1,1.473611E0,-1.1345191E0,-1.5915489E-1,9.3470895E-1,3.0435781E0,-1.7173532E0,-8.5288376E-1,-3.2648608E-1,1.484121E-1,6.258961E-1,1.2982205E0,2.097812E0,3.6675346E0],"split_indices":[1159,1159,1158,1159,1158,1159,1158,0,0,0,0,0,0,0,0],"split_type":[0,0,0,0,0,0,0,0,0,0,0,0,0,0,0],"sum_hessian":[4.51E2,3.08E2,1.43E2,1.39E2,1.69E2,1.16E2,2.7E1,5.2E1,8.7E1,8.8E1,8.1E1,6.3E1,5.3E1,2.1E1,6E0],"tree_param":{"num_deleted":"0","num_feature":"1177","num_nodes":"15","size_leaf_vector":"1"}},{"base_weights":[2.0174645E-1,-1.3197427E1,2.0798338E1,-2.67132E1,-6.5451407E0,1.3210294E1,4.1477135E1,-2.1259105E0,-1.148699E0,-5.417198E-1,-1.8732697E-2,3.5289598E-1,9.1831076E-1,1.7301682E0,3.135101E0],"categories":[],"categories_nodes":[],"categories_segments":[],"categories_sizes":[],"default_left":[0,0,0,0,0,0,0,0,0,0,0,0,0,0,0],"id":12,"left_children":[1,3,5,7,9,11,13,-1,-1,-1,-1,-1,-1,-1,-1],"loss_changes":[1.3163969E5,2.5809371E4,2.895146E4,4.637539E3,5.156964E3,4.2796113E3,5.125047E3,0E0,0E0,0E0,0E0,0E0,0E0,0E0,0E0],"parents":[2147483647,0,0,1,1,2,2,3,3,4,4,5,5,6,6],"right_children":[2,4,6,8,10,12,14,-1,-1,-1,-1,-1,-1,-1,-1],"split_conditions":[2.0941252E-1,-8.145354E-1,1.2333604E0,-1.5093267E0,-1.9590019E-1,5.002313E-1,2.384192E0,-2.1259105E0,-1.148699E0,-5.417198E-1,-1.8732697E-2,3.5289598E-1,9.1831076E-1,1.7301682E0,3.135101E0],"split_indices":[1159,1159,1159,1158,1159,1158,1158,0,0,0,0,0,0,0,0],"split_type":[0,0,0,0,0,0,0,0,0,0,0,0,0,0,0],"sum_hessian":[4.75E2,2.88E2,1.87E2,9.4E1,1.94E2,1.38E2,4.9E1,1.6E1,7.8E1,1.14E2,8E1,6.4E1,7.4E1,3.9E1,1E1],"tree_param":{"num_deleted":"0","num_feature":"1177","num_nodes":"15","size_leaf_vector":"1"}},{"base_weights":[-4.600082E-1,-1.2999664E1,1.9277046E1,-2.6206312E1,-6.6669197E0,1.2251674E1,3.8239254E1,-1.9727417E0,-1.0897088E0,-5.3459316E-1,-4.7043912E-2,3.6976513E-1,9.6996397E-1,1.5238633E0,2.6171765E0],"categories":[],"categories_nodes":[],"categories_segments":[],"categories_sizes":[],"default_left":[0,0,0,0,0,0,0,0,0,0,0,0,0,0,0],"id":13,"left_children":[1,3,5,7,9,11,13,-1,-1,-1,-1,-1,-1,-1,-1],"loss_changes":[1.1657366E5,2.3911969E4,2.391014E4,4.5763633E3,4.5071504E3,4.542576E3,3.7690938E3,0E0,0E0,0E0,0E0,0E0,0E0,0E0,0E0],"parents":[2147483647,0,0,1,1,2,2,3,3,4,4,5,5,6,6],"right_children":[2,4,6,8,10,12,14,-1,-1,-1,-1,-1,-1,-1,-1],"split_conditions":[1.234392E-1,-8.813398E-1,1.1906959E0,-1.646493E0,-2.1723244E-1,7.000542E-1,1.9446012E0,-1.9727417E0,-1.0897088E0,-5.3459316E-1,-4.7043912E-2,3.6976513E-1,9.6996397E-1,1.5238633E0,2.6171765E0],"split_indices":[1158,1158,1159,1159,1159,1159,1158,0,0,0,0,0,0,0,0],"split_type":[0,0,0,0,0,0,0,0,0,0,0,0,0,0,0],"sum_hessian":[4.69E2,2.87E2,1.82E2,9.2E1,1.95E2,1.34E2,4.8E1,2.1E1,7.1E1,1.14E2,8.1E1,8.1E1,5.3E1,3.3E1,1.5E1],"tree_param":{"num_deleted":"0","num_feature":"1177","num_nodes":"15","size_leaf_vector":"1"}},{"base_weights":[1.7021867E-2,-1.3520581E1,1.7932371E1,-2.803476E1,-8.590728E0,1.1393095E1,3.9719215E1,-1.9676253E0,-1.1537055E0,-6.822235E-1,-1.944174E-1,2.795895E-1,8.636231E-1,1.6858872E0,3.2005746E0],"categories":[],"categories_nodes":[],"categories_segments":[],"categories_sizes":[],"default_left":[0,0,0,0,0,0,0,0,0,0,0,0,0,0,0],"id":14,"left_children":[1,3,5,7,9,11,13,-1,-1,-1,-1,-1,-1,-1,-1],"loss_changes":[1.1326185E5,1.87922E4,2.8183984E4,2.853586E3,4.699869E3,5.2242637E3,4.5479844E3,0E0,0E0,0E0,0E0,0E0,0E0,0E0,0E0],"parents":[2147483647,0,0,1,1,2,2,3,3,4,4,5,5,6,6],"right_children":[2,4,6,8,10,12,14,-1,-1,-1,-1,-1,-1,-1,-1],"split_conditions":[6.008679E-2,-1.0065256E0,1.3166143E0,-1.5093267E0,-5.0454766E-1,5.002313E-1,3.0435781E0,-1.9676253E0,-1.1537055E0,-6.822235E-1,-1.944174E-1,2.795895E-1,8.636231E-1,1.6858872E0,3.2005746E0],"split_indices":[1159,1159,1158,1158,1158,1158,1158,0,0,0,0,0,0,0,0],"split_type":[0,0,0,0,0,0,0,0,0,0,0,0,0,0,0],"sum_hessian":[4.65E2,2.65E2,2E2,6.6E1,1.99E2,1.55E2,4.5E1,1.8E1,4.8E1,9.5E1,1.04E2,7.9E1,7.6E1,3.8E1,7E0],"tree_param":{"num_deleted":"0","num_feature":"1177","num_nodes":"15","size_leaf_vector":"1"}},{"base_weights":[4.2955324E-1,-1.134264E1,1.888094E1,-2.2826214E1,-5.362345E0,1.3855005E1,4.07945E1,-1.6792322E0,-9.3688816E-1,-4.4723374E-1,-3.737968E-2,4.269173E-1,1.082322E0,1.7218983E0,2.8574245E0],"categories":[],"categories_nodes":[],"categories_segments":[],"categories_sizes":[],"default_left":[0,0,0,0,0,0,0,0,0,0,0,0,0,0,0],"id":15,"left_children":[1,3,5,7,9,11,13,-1,-1,-1,-1,-1,-1,-1,-1],"loss_changes":[1.0317325E5,1.9793395E4,1.9809969E4,3.7252422E3,3.1673726E3,6.1116855E3,1.5663828E3,0E0,0E0,0E0,0E0,0E0,0E0,0E0,0E0],"parents":[2147483647,0,0,1,1,2,2,3,3,4,4,5,5,6,6],"right_children":[2,4,6,8,10,12,14,-1,-1,-1,-1,-1,-1,-1,-1],"split_conditions":[1.8808028E-1,-7.8714174E-1,1.473611E0,-1.4545028E0,-2.8475228E-1,9.3470895E-1,3.0435781E0,-1.6792322E0,-9.3688816E-1,-4.4723374E-1,-3.737968E-2,4.269173E-1,1.082322E0,1.7218983E0,2.8574245E0],"split_indices":[1159,1158,1158,1159,1158,1159,1158,0,0,0,0,0,0,0,0],"split_type":[0,0,0,0,0,0,0,0,0,0,0,0,0,0,0],"sum_hessian":[4.73E2,2.89E2,1.84E2,9.8E1,1.91E2,1.51E2,3.3E1,2.5E1,7.3E1,1.07E2,8.4E1,9.1E1,6E1,2.6E1,7E0],"tree_param":{"num_deleted":"0","num_feature":"1177","num_nodes":"15","size_leaf_vector":"1"}},{"base_weights":[2.841532E-1,-1.0103546E1,1.8429626E1,-2.1013988E1,-3.703976E0,1.303755E1,3.8238895E1,-1.5290229E0,-8.354751E-1,-3.933105E-1,1.8241232E-2,3.9149046E-1,9.308492E-1,1.6475314E0,3.1689198E0],"categories":[],"categories_nodes":[],"categories_segments":[],"categories_sizes":[],"default_left":[0,0,0,0,0,0,0,0,0,0,0,0,0,0,0],"id":16,"left_children":[1,3,5,7,9,11,13,-1,-1,-1,-1,-1,-1,-1,-1],"loss_changes":[8.594903E4,2.0170582E4,1.7232426E4,3.8951445E3,3.1189648E3,3.6896562E3,2.5646953E3,0E0,0E0,0E0,0E0,0E0,0E0,0E0,0E0],"parents":[2147483647,0,0,1,1,2,2,3,3,4,4,5,5,6,6],"right_children":[2,4,6,8,10,12,14,-1,-1,-1,-1,-1,-1,-1,-1],"split_conditions":[2.1763723E-1,-6.6520965E-1,1.5320119E0,-1.2581319E0,-1.7456794E-1,7.000542E-1,2.6199565E0,-1.5290229E0,-8.354751E-1,-3.933105E-1,1.8241232E-2,3.9149046E-1,9.308492E-1,1.6475314E0,3.1689198E0],"split_indices":[1158,1159,1159,1158,1159,1159,1159,0,0,0,0,0,0,0,0],"split_type":[0,0,0,0,0,0,0,0,0,0,0,0,0,0,0],"sum_hessian":[4.54E2,2.89E2,1.65E2,1.06E2,1.83E2,1.31E2,3.4E1,3.1E1,7.5E1,9E1,9.3E1,6.9E1,6.2E1,3E1,4E0],"tree_param":{"num_deleted":"0","num_feature":"1177","num_nodes":"15","size_leaf_vector":"1"}},{"base_weights":[-1.0834116E-1,-1.2227431E1,1.4550503E1,-2.5041693E1,-8.047578E0,8.672588E0,3.095785E1,-1.722452E0,-1.0205151E0,-6.232998E-1,-1.9068946E-1,2.2974601E-1,7.309534E-1,1.3373108E0,2.8008373E0],"categories":[],"categories_nodes":[],"categories_segments":[],"categories_sizes":[],"default_left":[0,0,0,0,0,0,0,0,0,0,0,0,0,0,0],"id":17,"left_children":[1,3,5,7,9,11,13,-1,-1,-1,-1,-1,-1,-1,-1],"loss_changes":[8.243071E4,1.340316E4,1.9984125E4,1.998168E3,3.5628398E3,3.7154785E3,4.3064023E3,0E0,0E0,0E0,0E0,0E0,0E0,0E0,0E0],"parents":[2147483647,0,0,1,1,2,2,3,3,4,4,5,5,6,6],"right_children":[2,4,6,8,10,12,14,-1,-1,-1,-1,-1,-1,-1,-1],"split_conditions":[-2.158176E-3,-1.04919E0,1.1596175E0,-1.5093267E0,-4.5188716E-1,6.360575E-1,3.0435781E0,-1.722452E0,-1.0205151E0,-6.232998E-1,-1.9068946E-1,2.2974601E-1,7.309534E-1,1.3373108E0,2.8008373E0],"split_indices":[1158,1159,1158,1158,1159,1159,1158,0,0,0,0,0,0,0,0],"split_type":[0,0,0,0,0,0,0,0,0,0,0,0,0,0,0],"sum_hessian":[4.62E2,2.53E2,2.09E2,6.1E1,1.92E2,1.55E2,5.4E1,1.8E1,4.3E1,9.3E1,9.9E1,9.3E1,6.2E1,4.8E1,6E0],"tree_param":{"num_deleted":"0","num_feature":"1177","num_nodes":"15","size_leaf_vector":"1"}},{"base_weights":[-4.674868E-1,-1.141394E1,1.3089886E1,-2.2100779E1,-6.5892954E0,8.251418E0,3.0581432E1,-1.6115313E0,-9.2670745E-1,-5.342812E-1,-1.5957035E-1,1.8588349E-1,6.7465645E-1,1.3109916E0,3.0551295E0],"categories":[],"categories_nodes":[],"categories_segments":[],"categories_sizes":[],"default_left":[0,0,0,0,0,0,0,0,0,0,0,0,0,0,0],"id":18,"left_children":[1,3,5,7,9,11,13,-1,-1,-1,-1,-1,-1,-1,-1],"loss_changes":[7.108707E4,1.3517824E4,1.7858969E4,2.365246E3,2.5269702E3,3.9660537E3,4.5214688E3,0E0,0E0,0E0,0E0,0E0,0E0,0E0,0E0],"parents":[2147483647,0,0,1,1,2,2,3,3,4,4,5,5,6,6],"right_children":[2,4,6,8,10,12,14,-1,-1,-1,-1,-1,-1,-1,-1],"split_conditions":[3.875454E-2,-9.211966E-1,1.1906959E0,-1.5093267E0,-4.305549E-1,4.3743265E-1,2.3853018E0,-1.6115313E0,-9.2670745E-1,-5.342812E-1,-1.5957035E-1,1.8588349E-1,6.7465645E-1,1.3109916E0,3.0551295E0],"split_indices":[1159,1159,1159,1158,1159,1158,1159,0,0,0,0,0,0,0,0],"split_type":[0,0,0,0,0,0,0,0,0,0,0,0,0,0,0],"sum_hessian":[4.77E2,2.64E2,2.13E2,8.1E1,1.83E2,1.68E2,4.5E1,1.9E1,6.2E1,8.2E1,1.01E2,9.1E1,7.7E1,4.1E1,4E0],"tree_param":{"num_deleted":"0","num_feature":"1177","num_nodes":"15","size_leaf_vector":"1"}},{"base_weights":[1.2819007E-1,-7.978083E0,1.8984426E1,-1.6174929E1,-1.0646484E0,1.4434633E1,3.9518085E1,-1.2579086E0,-6.2825507E-1,-1.9010882E-1,1.5765153E-1,4.5820934E-1,9.5614225E-1,1.5952165E0,2.9155462E0],"categories":[],"categories_nodes":[],"categories_segments":[],"categories_sizes":[],"default_left":[0,0,0,0,0,0,0,0,0,0,0,0,0,0,0],"id":19,"left_children":[1,3,5,7,9,11,13,-1,-1,-1,-1,-1,-1,-1,-1],"loss_changes":[7.168705E4,1.8569998E4,1.260234E4,4.548078E3,2.0787246E3,2.715705E3,1.7167266E3,0E0,0E0,0E0,0E0,0E0,0E0,0E0,0E0],"parents":[2147483647,0,0,1,1,2,2,3,3,4,4,5,5,6,6],"right_children":[2,4,6,8,10,12,14,-1,-1,-1,-1,-1,-1,-1,-1],"split_conditions":[3.800705E-1,-5.372161E-1,1.7248057E0,-1.1639339E0,-3.355752E-2,8.7702346E-1,2.6199565E0,-1.2579086E0,-6.2825507E-1,-1.9010882E-1,1.5765153E-1,4.5820934E-1,9.5614225E-1,1.5952165E0,2.9155462E0],"split_indices":[1159,1159,1158,1158,1158,1158,1159,0,0,0,0,0,0,0,0],"split_type":[0,0,0,0,0,0,0,0,0,0,0,0,0,0,0],"sum_hessian":[4.67E2,3.27E2,1.4E2,1.49E2,1.78E2,1.16E2,2.4E1,4.1E1,1.08E2,1.08E2,7E1,5.6E1,6E1,1.9E1,5E0],"tree_param":{"num_deleted":"0","num_feature":"1177","num_nodes":"15","size_leaf_vector":"1"}},{"base_weights":[-3.6707965E-1,-8.884923E0,1.4887937E1,-1.6967958E1,-2.9649258E0,1.0724809E1,3.3477493E1,-1.4618226E0,-7.1680397E-1,-2.9877087E-1,2.5546601E-2,3.4094056E-1,8.132103E-1,1.3913403E0,2.3122442E0],"categories":[],"categories_nodes":[],"categories_segments":[],"categories_sizes":[],"default_left":[0,0,0,0,0,0,0,0,0,0,0,0,0,0,0],"id":20,"left_children":[1,3,5,7,9,11,13,-1,-1,-1,-1,-1,-1,-1,-1],"loss_changes":[6.2373465E4,1.4687967E4,1.2952164E4,3.778461E3,1.8761158E3,2.9615332E3,9.496328E2,0E0,0E0,0E0,0E0,0E0,0E0,0E0,0E0],"parents":[2147483647,0,0,1,1,2,2,3,3,4,4,5,5,6,6],"right_children":[2,4,6,8,10,12,14,-1,-1,-1,-1,-1,-1,-1,-1],"split_conditions":[2.1763723E-1,-6.615444E-1,1.473611E0,-1.6891575E0,-1.5323569E-1,9.3470895E-1,2.150647E0,-1.4618226E0,-7.1680397E-1,-2.9877087E-1,2.5546601E-2,3.4094056E-1,8.132103E-1,1.3913403E0,2.3122442E0],"split_indices":[1158,1158,1158,1159,1159,1159,1159,0,0,0,0,0,0,0,0],"split_type":[0,0,0,0,0,0,0,0,0,0,0,0,0,0,0],"sum_hessian":[4.78E2,3.07E2,1.71E2,1.29E2,1.78E2,1.41E2,3E1,2.1E1,1.08E2,9.5E1,8.3E1,8.4E1,5.7E1,2.3E1,7E0],"tree_param":{"num_deleted":"0","num_feature":"1177","num_nodes":"15","size_leaf_vector":"1"}},{"base_weights":[-3.2486796E-2,-8.671769E0,1.313015E1,-1.6327833E1,-3.648497E0,7.3168726E0,2.4029282E1,-1.4337629E0,-7.094483E-1,-3.176459E-1,-2.1892603E-2,2.3290358E-1,5.843407E-1,9.7308344E-1,1.8024977E0],"categories":[],"categories_nodes":[],"categories_segments":[],"categories_sizes":[],"default_left":[0,0,0,0,0,0,0,0,0,0,0,0,0,0,0],"id":21,"left_children":[1,3,5,7,9,11,13,-1,-1,-1,-1,-1,-1,-1,-1],"loss_changes":[5.4811125E4,1.113185E4,1.1925875E4,2.6302207E3,1.5340981E3,1.4095317E3,2.9221953E3,0E0,0E0,0E0,0E0,0E0,0E0,0E0,0E0],"parents":[2147483647,0,0,1,1,2,2,3,3,4,4,5,5,6,6],"right_children":[2,4,6,8,10,12,14,-1,-1,-1,-1,-1,-1,-1,-1],"split_conditions":[1.234392E-1,-6.8654186E-1,1.0968188E0,-1.5407261E0,-2.1723244E-1,5.944294E-1,1.979989E0,-1.4337629E0,-7.094483E-1,-3.176459E-1,-2.1892603E-2,2.3290358E-1,5.843407E-1,9.7308344E-1,1.8024977E0],"split_indices":[1158,1159,1158,1158,1159,1158,1159,0,0,0,0,0,0,0,0],"split_type":[0,0,0,0,0,0,0,0,0,0,0,0,0,0,0],"sum_hessian":[4.8E2,2.9E2,1.9E2,1.14E2,1.76E2,1.25E2,6.5E1,1.5E1,9.9E1,9.5E1,8.1E1,7.9E1,4.6E1,4.9E1,1.6E1],"tree_param":{"num_deleted":"0","num_feature":"1177","num_nodes":"15","size_leaf_vector":"1"}},{"base_weights":[-1.6949864E-1,-7.39073E0,1.544512E1,-1.658094E1,-2.5645978E0,1.1414342E1,3.231223E1,-1.3329657E0,-7.022544E-1,-2.941562E-1,6.609488E-2,3.6791846E-1,7.577687E-1,1.3584814E0,2.5267131E0],"categories":[],"categories_nodes":[],"categories_segments":[],"categories_sizes":[],"default_left":[0,0,0,0,0,0,0,0,0,0,0,0,0,0,0],"id":22,"left_children":[1,3,5,7,9,11,13,-1,-1,-1,-1,-1,-1,-1,-1],"loss_changes":[5.2771562E4,1.415049E4,9.693336E3,2.4368691E3,2.7291357E3,1.7244766E3,1.2508457E3,0E0,0E0,0E0,0E0,0E0,0E0,0E0,0E0],"parents":[2147483647,0,0,1,1,2,2,3,3,4,4,5,5,6,6],"right_children":[2,4,6,8,10,12,14,-1,-1,-1,-1,-1,-1,-1,-1],"split_conditions":[3.37406E-1,-7.8714174E-1,1.5992084E0,-1.5093267E0,-2.2195359E-1,9.3470895E-1,2.6199565E0,-1.3329657E0,-7.022544E-1,-2.941562E-1,6.609488E-2,3.6791846E-1,7.577687E-1,1.3584814E0,2.5267131E0],"split_indices":[1159,1158,1158,1158,1158,1159,1159,0,0,0,0,0,0,0,0],"split_type":[0,0,0,0,0,0,0,0,0,0,0,0,0,0,0],"sum_hessian":[4.66E2,3.19E2,1.47E2,1.09E2,2.1E2,1.2E2,2.7E1,2E1,8.9E1,1.13E2,9.7E1,5.9E1,6.1E1,2.3E1,4E0],"tree_param":{"num_deleted":"0","num_feature":"1177","num_nodes":"15","size_leaf_vector":"1"}},{"base_weights":[-2.0179588E-1,-8.610945E0,1.0997896E1,-1.8720617E1,-5.1672525E0,7.4284267E0,2.580396E1,-1.310162E0,-8.101739E-1,-4.5455799E-1,-1.1069802E-1,1.7398109E-1,5.787789E-1,1.085282E0,2.1011903E0],"categories":[],"categories_nodes":[],"categories_segments":[],"categories_sizes":[],"default_left":[0,0,0,0,0,0,0,0,0,0,0,0,0,0,0],"id":23,"left_children":[1,3,5,7,9,11,13,-1,-1,-1,-1,-1,-1,-1,-1],"loss_changes":[4.567776E4,9.546908E3,1.0801078E4,8.938535E2,2.390269E3,2.7273145E3,1.7468105E3,0E0,0E0,0E0,0E0,0E0,0E0,0E0,0E0],"parents":[2147483647,0,0,1,1,2,2,3,3,4,4,5,5,6,6],"right_children":[2,4,6,8,10,12,14,-1,-1,-1,-1,-1,-1,-1,-1],"split_conditions":[2.9241167E-2,-1.04919E0,1.4253507E0,-1.8811477E0,-4.5188716E-1,5.720607E-1,2.3639696E0,-1.310162E0,-8.101739E-1,-4.5455799E-1,-1.1069802E-1,1.7398109E-1,5.787789E-1,1.085282E0,2.1011903E0],"split_indices":[1158,1159,1159,1159,1159,1159,1159,0,0,0,0,0,0,0,0],"split_type":[0,0,0,0,0,0,0,0,0,0,0,0,0,0,0],"sum_hessian":[4.83E2,2.76E2,2.07E2,6.9E1,2.07E2,1.68E2,3.9E1,1.5E1,5.4E1,8.8E1,1.19E2,8.7E1,8.1E1,3.3E1,6E0],"tree_param":{"num_deleted":"0","num_feature":"1177","num_nodes":"15","size_leaf_vector":"1"}},{"base_weights":[6.1848503E-1,-6.8393097E0,1.29901085E1,-1.3395276E1,-2.069724E0,9.628188E0,3.0395134E1,-9.275482E-1,-4.8457232E-1,-2.249173E-1,3.218734E-2,2.975374E-1,7.095779E-1,1.2289256E0,2.4297884E0],"categories":[],"categories_nodes":[],"categories_segments":[],"categories_sizes":[],"default_left":[0,0,0,0,0,0,0,0,0,0,0,0,0,0,0],"id":24,"left_children":[1,3,5,7,9,11,13,-1,-1,-1,-1,-1,-1,-1,-1],"loss_changes":[4.4652855E4,9.415587E3,1.0356953E4,2.2453809E3,1.1627347E3,2.4999053E3,1.875707E3,0E0,0E0,0E0,0E0,0E0,0E0,0E0,0E0],"parents":[2147483647,0,0,1,1,2,2,3,3,4,4,5,5,6,6],"right_children":[2,4,6,8,10,12,14,-1,-1,-1,-1,-1,-1,-1,-1],"split_conditions":[2.1763723E-1,-6.301451E-1,1.5992084E0,-1.1345191E0,-1.3190344E-1,9.3470895E-1,2.6199565E0,-9.275482E-1,-4.8457232E-1,-2.249173E-1,3.218734E-2,2.975374E-1,7.095779E-1,1.2289256E0,2.4297884E0],"split_indices":[1158,1158,1158,1159,1159,1159,1159,0,0,0,0,0,0,0,0],"split_type":[0,0,0,0,0,0,0,0,0,0,0,0,0,0,0],"sum_hessian":[4.82E2,3.01E2,1.81E2,1.26E2,1.75E2,1.53E2,2.8E1,5.1E1,7.5E1,9.2E1,8.3E1,8.6E1,6.7E1,2.3E1,5E0],"tree_param":{"num_deleted":"0","num_feature":"1177","num_nodes":"15","size_leaf_vector":"1"}},{"base_weights":[1.4348365E-1,-6.3876195E0,1.2141653E1,-1.3093504E1,-1.9303992E0,9.236405E0,2.6753054E1,-9.823861E-1,-5.228866E-1,-2.3008786E-1,3.8053337E-2,3.2600847E-1,7.057478E-1,1.1272603E0,2.3181922E0],"categories":[],"categories_nodes":[],"categories_segments":[],"categories_sizes":[],"default_left":[0,0,0,0,0,0,0,0,0,0,0,0,0,0,0],"id":25,"left_children":[1,3,5,7,9,11,13,-1,-1,-1,-1,-1,-1,-1,-1],"loss_changes":[3.82395E4,9.419838E3,7.054252E3,1.9712363E3,1.3767671E3,1.8294062E3,1.2652559E3,0E0,0E0,0E0,0E0,0E0,0E0,0E0,0E0],"parents":[2147483647,0,0,1,1,2,2,3,3,4,4,5,5,6,6],"right_children":[2,4,6,8,10,12,14,-1,-1,-1,-1,-1,-1,-1,-1],"split_conditions":[2.947415E-1,-6.6520965E-1,1.567809E0,-1.2581319E0,-2.533529E-1,9.987057E-1,3.954159E0,-9.823861E-1,-5.228866E-1,-2.3008786E-1,3.8053337E-2,3.2600847E-1,7.057478E-1,1.1272603E0,2.3181922E0],"split_indices":[1159,1159,1158,1158,1158,1159,1158,0,0,0,0,0,0,0,0],"split_type":[0,0,0,0,0,0,0,0,0,0,0,0,0,0,0],"sum_hessian":[4.86E2,3.15E2,1.71E2,1.25E2,1.9E2,1.44E2,2.7E1,3.4E1,9.1E1,9.5E1,9.5E1,9.4E1,5E1,2.4E1,3E0],"tree_param":{"num_deleted":"0","num_feature":"1177","num_nodes":"15","size_leaf_vector":"1"}},{"base_weights":[-4.7664855E-2,-5.870691E0,1.1711398E1,-1.28467245E1,-1.9196335E0,8.319986E0,2.3997223E1,-1.0750479E0,-5.377203E-1,-2.1873145E-1,3.7881296E-2,2.7864778E-1,6.044437E-1,9.5801955E-1,1.6602948E0],"categories":[],"categories_nodes":[],"categories_segments":[],"categories_sizes":[],"default_left":[0,0,0,0,0,0,0,0,0,0,0,0,0,0,0],"id":26,"left_children":[1,3,5,7,9,11,13,-1,-1,-1,-1,-1,-1,-1,-1],"loss_changes":[3.2045799E4,8.602466E3,6.258617E3,1.8149082E3,1.324419E3,1.2060791E3,8.336094E2,0E0,0E0,0E0,0E0,0E0,0E0,0E0,0E0],"parents":[2147483647,0,0,1,1,2,2,3,3,4,4,5,5,6,6],"right_children":[2,4,6,8,10,12,14,-1,-1,-1,-1,-1,-1,-1,-1],"split_conditions":[2.8043592E-1,-7.2434306E-1,1.5320119E0,-1.5398318E0,-1.5323569E-1,8.456241E-1,2.384192E0,-1.0750479E0,-5.377203E-1,-2.1873145E-1,3.7881296E-2,2.7864778E-1,6.044437E-1,9.5801955E-1,1.6602948E0],"split_indices":[1158,1158,1159,1159,1159,1158,1158,0,0,0,0,0,0,0,0],"split_type":[0,0,0,0,0,0,0,0,0,0,0,0,0,0,0],"sum_hessian":[4.66E2,3.12E2,1.54E2,1.12E2,2E2,1.22E2,3.2E1,2E1,9.2E1,1.04E2,9.6E1,7.2E1,5E1,2.3E1,9E0],"tree_param":{"num_deleted":"0","num_feature":"1177","num_nodes":"15","size_leaf_vector":"1"}},{"base_weights":[-5.1939484E-2,-4.837354E0,1.3377301E1,-1.0962331E1,-1.9806078E-1,1.0505627E1,2.944986E1,-8.141781E-1,-3.867056E-1,-1.1971872E-1,1.20824076E-1,3.4819648E-1,6.700002E-1,1.1660994E0,2.097175E0],"categories":[],"categories_nodes":[],"categories_segments":[],"categories_sizes":[],"default_left":[0,0,0,0,0,0,0,0,0,0,0,0,0,0,0],"id":27,"left_children":[1,3,5,7,9,11,13,-1,-1,-1,-1,-1,-1,-1,-1],"loss_changes":[3.1554309E4,1.0284264E4,5.644625E3,2.5538438E3,1.1944534E3,1.0445449E3,4.7642383E2,0E0,0E0,0E0,0E0,0E0,0E0,0E0,0E0],"parents":[2147483647,0,0,1,1,2,2,3,3,4,4,5,5,6,6],"right_children":[2,4,6,8,10,12,14,-1,-1,-1,-1,-1,-1,-1,-1],"split_conditions":[4.653995E-1,-5.158839E-1,1.7879988E0,-1.1558514E0,-2.158176E-3,9.7122145E-1,2.6199565E0,-8.141781E-1,-3.867056E-1,-1.1971872E-1,1.20824076E-1,3.4819648E-1,6.700002E-1,1.1660994E0,2.097175E0],"split_indices":[1159,1159,1159,1159,1158,1158,1159,0,0,0,0,0,0,0,0],"split_type":[0,0,0,0,0,0,0,0,0,0,0,0,0,0,0],"sum_hessian":[4.89E2,3.61E2,1.28E2,1.55E2,2.06E2,1.1E2,1.8E1,5.7E1,9.8E1,1.12E2,9.4E1,5.1E1,5.9E1,1.4E1,4E0],"tree_param":{"num_deleted":"0","num_feature":"1177","num_nodes":"15","size_leaf_vector":"1"}},{"base_weights":[2.9958504E-1,-6.0732017E0,9.570574E0,-1.3847122E1,-3.1952646E0,6.50184E0,2.0839058E1,-1.0650338E0,-5.876474E-1,-3.1801316E-1,-4.8975665E-2,2.0654483E-1,5.0443524E-1,8.733633E-1,1.7119665E0],"categories":[],"categories_nodes":[],"categories_segments":[],"categories_sizes":[],"default_left":[0,0,0,0,0,0,0,0,0,0,0,0,0,0,0],"id":28,"left_children":[1,3,5,7,9,11,13,-1,-1,-1,-1,-1,-1,-1,-1],"loss_changes":[2.7413105E4,6.108288E3,6.400121E3,9.0472363E2,1.4103657E3,1.2339619E3,1.209252E3,0E0,0E0,0E0,0E0,0E0,0E0,0E0,0E0],"parents":[2147483647,0,0,1,1,2,2,3,3,4,4,5,5,6,6],"right_children":[2,4,6,8,10,12,14,-1,-1,-1,-1,-1,-1,-1,-1],"split_conditions":[1.234392E-1,-8.998644E-1,1.4680151E0,-1.8811477E0,-3.6655816E-1,7.5142604E-1,3.0435781E0,-1.0650338E0,-5.876474E-1,-3.1801316E-1,-4.8975665E-2,2.0654483E-1,5.0443524E-1,8.733633E-1,1.7119665E0],"split_indices":[1158,1159,1159,1159,1159,1158,1158,0,0,0,0,0,0,0,0],"split_type":[0,0,0,0,0,0,0,0,0,0,0,0,0,0,0],"sum_hessian":[4.62E2,2.74E2,1.88E2,7.3E1,2.01E2,1.49E2,3.9E1,1.4E1,5.9E1,8.2E1,1.19E2,9.1E1,5.8E1,3.3E1,6E0],"tree_param":{"num_deleted":"0","num_feature":"1177","num_nodes":"15","size_leaf_vector":"1"}},{"base_weights":[3.527782E-1,-4.626277E0,1.2166784E1,-9.87292E0,-1.5711913E-1,9.137565E0,2.5978031E1,-7.4827975E-1,-3.4205237E-1,-1.3271138E-1,7.812581E-2,3.1573823E-1,5.926667E-1,1.0194308E0,2.0139873E0],"categories":[],"categories_nodes":[],"categories_segments":[],"categories_sizes":[],"default_left":[0,0,0,0,0,0,0,0,0,0,0,0,0,0,0],"id":29,"left_children":[1,3,5,7,9,11,13,-1,-1,-1,-1,-1,-1,-1,-1],"loss_changes":[2.8173484E4,7.9004497E3,5.7035234E3,2.290873E3,7.899704E2,8.297451E2,1.177207E3,0E0,0E0,0E0,0E0,0E0,0E0,0E0,0E0],"parents":[2147483647,0,0,1,1,2,2,3,3,4,4,5,5,6,6],"right_children":[2,4,6,8,10,12,14,-1,-1,-1,-1,-1,-1,-1,-1],"split_conditions":[4.653995E-1,-5.0454766E-1,1.7879988E0,-1.1558514E0,-6.790669E-2,9.7122145E-1,2.3853018E0,-7.4827975E-1,-3.4205237E-1,-1.3271138E-1,7.812581E-2,3.1573823E-1,5.926667E-1,1.0194308E0,2.0139873E0],"split_indices":[1159,1158,1159,1159,1159,1158,1159,0,0,0,0,0,0,0,0],"split_type":[0,0,0,0,0,0,0,0,0,0,0,0,0,0,0],"sum_hessian":[4.77E2,3.36E2,1.41E2,1.54E2,1.82E2,1.17E2,2.4E1,5.6E1,9.8E1,7.4E1,1.08E2,5.9E1,5.8E1,1.9E1,5E0],"tree_param":{"num_deleted":"0","num_feature":"1177","num_nodes":"15","size_leaf_vector":"1"}},{"base_weights":[1.6348195E-1,-4.891086E0,1.0397182E1,-1.2638454E1,-2.1928556E0,7.7323112E0,2.5286974E1,-1.0116959E0,-5.276865E-1,-2.297313E-1,1.9516503E-2,2.5545487E-1,5.579078E-1,9.8757595E-1,1.9300711E0],"categories":[],"categories_nodes":[],"categories_segments":[],"categories_sizes":[],"default_left":[0,0,0,0,0,0,0,0,0,0,0,0,0,0,0],"id":30,"left_children":[1,3,5,7,9,11,13,-1,-1,-1,-1,-1,-1,-1,-1],"loss_changes":[2.5190145E4,6.7870493E3,6.1928516E3,1.1165508E3,1.5094188E3,1.1831602E3,1.0063994E3,0E0,0E0,0E0,0E0,0E0,0E0,0E0,0E0],"parents":[2147483647,0,0,1,1,2,2,3,3,4,4,5,5,6,6],"right_children":[2,4,6,8,10,12,14,-1,-1,-1,-1,-1,-1,-1,-1],"split_conditions":[2.8043592E-1,-8.998644E-1,1.7879988E0,-1.8811477E0,-2.8475228E-1,9.7122145E-1,2.6199565E0,-1.0116959E0,-5.276865E-1,-2.297313E-1,1.9516503E-2,2.5545487E-1,5.579078E-1,9.8757595E-1,1.9300711E0],"split_indices":[1158,1159,1159,1159,1158,1158,1159,0,0,0,0,0,0,0,0],"split_type":[0,0,0,0,0,0,0,0,0,0,0,0,0,0,0],"sum_hessian":[4.85E2,3.25E2,1.6E2,8.3E1,2.42E2,1.37E2,2.3E1,1.6E1,6.7E1,1.25E2,1.17E2,7.9E1,5.8E1,1.8E1,5E0],"tree_param":{"num_deleted":"0","num_feature":"1177","num_nodes":"15","size_leaf_vector":"1"}},{"base_weights":[2.4757124E-2,-5.338991E0,8.280868E0,-1.2652746E1,-3.0398717E0,5.859093E0,2.0591347E1,-9.361454E-1,-5.253729E-1,-2.8189248E-1,-4.3915533E-2,1.9482596E-1,4.8923907E-1,8.511612E-1,1.7870473E0],"categories":[],"categories_nodes":[],"categories_segments":[],"categories_sizes":[],"default_left":[0,0,0,0,0,0,0,0,0,0,0,0,0,0,0],"id":31,"left_children":[1,3,5,7,9,11,13,-1,-1,-1,-1,-1,-1,-1,-1],"loss_changes":[2.1477521E4,4.905205E3,5.573676E3,7.1482715E2,1.2585776E3,1.202291E3,1.0672988E3,0E0,0E0,0E0,0E0,0E0,0E0,0E0,0E0],"parents":[2147483647,0,0,1,1,2,2,3,3,4,4,5,5,6,6],"right_children":[2,4,6,8,10,12,14,-1,-1,-1,-1,-1,-1,-1,-1],"split_conditions":[1.8808028E-1,-9.7553784E-1,1.473611E0,-1.8811477E0,-3.6655816E-1,9.773734E-1,2.6199565E0,-9.361454E-1,-5.253729E-1,-2.8189248E-1,-4.3915533E-2,1.9482596E-1,4.8923907E-1,8.511612E-1,1.7870473E0],"split_indices":[1159,1158,1158,1159,1159,1159,1159,0,0,0,0,0,0,0,0],"split_type":[0,0,0,0,0,0,0,0,0,0,0,0,0,0,0],"sum_hessian":[4.83E2,2.93E2,1.9E2,6.9E1,2.24E2,1.6E2,3E1,1.6E1,5.3E1,1.01E2,1.23E2,1.08E2,5.2E1,2.6E1,4E0],"tree_param":{"num_deleted":"0","num_feature":"1177","num_nodes":"15","size_leaf_vector":"1"}},{"base_weights":[4.062379E-2,-5.2246075E0,7.9105453E0,-1.1736894E1,-2.7886913E0,4.8901753E0,1.5426845E1,-8.7269956E-1,-4.913075E-1,-2.523058E-1,-3.8526308E-2,1.38627E-1,3.468469E-1,6.214591E-1,1.1196078E0],"categories":[],"categories_nodes":[],"categories_segments":[],"categories_sizes":[],"default_left":[0,0,0,0,0,0,0,0,0,0,0,0,0,0,0],"id":32,"left_children":[1,3,5,7,9,11,13,-1,-1,-1,-1,-1,-1,-1,-1],"loss_changes":[1.9641012E4,4.4724707E3,4.2379404E3,6.6963574E2,9.4372986E2,5.745659E2,8.4918555E2,0E0,0E0,0E0,0E0,0E0,0E0,0E0,0E0],"parents":[2147483647,0,0,1,1,2,2,3,3,4,4,5,5,6,6],"right_children":[2,4,6,8,10,12,14,-1,-1,-1,-1,-1,-1,-1,-1],"split_conditions":[1.234392E-1,-9.7553784E-1,1.1910169E0,-1.5093267E0,-3.452259E-1,5.3163064E-1,1.979989E0,-8.7269956E-1,-4.913075E-1,-2.523058E-1,-3.8526308E-2,1.38627E-1,3.468469E-1,6.214591E-1,1.1196078E0],"split_indices":[1158,1158,1158,1158,1159,1158,1159,0,0,0,0,0,0,0,0],"split_type":[0,0,0,0,0,0,0,0,0,0,0,0,0,0,0],"sum_hessian":[4.72E2,2.83E2,1.89E2,7.6E1,2.07E2,1.36E2,5.3E1,1.7E1,5.9E1,9.7E1,1.1E2,6.8E1,6.8E1,3.9E1,1.4E1],"tree_param":{"num_deleted":"0","num_feature":"1177","num_nodes":"15","size_leaf_vector":"1"}},{"base_weights":[3.515781E-2,-4.936585E0,6.990526E0,-1.26014595E1,-3.0406482E0,4.67031E0,1.5268802E1,-9.7345585E-1,-5.2450264E-1,-2.7086648E-1,-5.9452094E-2,1.0882171E-1,3.2929042E-1,5.985715E-1,1.0739748E0],"categories":[],"categories_nodes":[],"categories_segments":[],"categories_sizes":[],"default_left":[0,0,0,0,0,0,0,0,0,0,0,0,0,0,0],"id":33,"left_children":[1,3,5,7,9,11,13,-1,-1,-1,-1,-1,-1,-1,-1],"loss_changes":[1.6840535E4,4.0888042E3,3.827791E3,6.07792E2,1.00131396E3,7.499888E2,6.439346E2,0E0,0E0,0E0,0E0,0E0,0E0,0E0,0E0],"parents":[2147483647,0,0,1,1,2,2,3,3,4,4,5,5,6,6],"right_children":[2,4,6,8,10,12,14,-1,-1,-1,-1,-1,-1,-1,-1],"split_conditions":[1.6674803E-1,-1.0383365E0,1.3166143E0,-1.987809E0,-4.7314832E-1,5.507285E-1,1.8733279E0,-9.7345585E-1,-5.2450264E-1,-2.7086648E-1,-5.9452094E-2,1.0882171E-1,3.2929042E-1,5.985715E-1,1.0739748E0],"split_indices":[1159,1158,1158,1159,1158,1159,1159,0,0,0,0,0,0,0,0],"split_type":[0,0,0,0,0,0,0,0,0,0,0,0,0,0,0],"sum_hessian":[4.85E2,2.83E2,2.02E2,5.5E1,2.28E2,1.59E2,4.3E1,1.1E1,4.4E1,9.9E1,1.29E2,7E1,8.9E1,3E1,1.3E1],"tree_param":{"num_deleted":"0","num_feature":"1177","num_nodes":"15","size_leaf_vector":"1"}},{"base_weights":[1.7482983E-1,-4.0947294E0,8.062035E0,-1.0604177E1,-2.1299596E0,6.081953E0,1.9359097E1,-8.643454E-1,-4.3124E-1,-2.1417569E-1,4.8825694E-3,2.0543046E-1,4.640464E-1,7.958403E-1,1.4628218E0],"categories":[],"categories_nodes":[],"categories_segments":[],"categories_sizes":[],"default_left":[0,0,0,0,0,0,0,0,0,0,0,0,0,0,0],"id":34,"left_children":[1,3,5,7,9,11,13,-1,-1,-1,-1,-1,-1,-1,-1],"loss_changes":[1.572551E4,3.8526514E3,3.550792E3,7.7683936E2,1.1229818E3,8.5195557E2,3.5199902E2,0E0,0E0,0E0,0E0,0E0,0E0,0E0,0E0],"parents":[2147483647,0,0,1,1,2,2,3,3,4,4,5,5,6,6],"right_children":[2,4,6,8,10,12,14,-1,-1,-1,-1,-1,-1,-1,-1],"split_conditions":[2.947415E-1,-9.211966E-1,1.7248057E0,-1.5093267E0,-2.8122917E-1,9.987057E-1,2.6199565E0,-8.643454E-1,-4.3124E-1,-2.1417569E-1,4.8825694E-3,2.0543046E-1,4.640464E-1,7.958403E-1,1.4628218E0],"split_indices":[1159,1159,1158,1158,1159,1159,1159,0,0,0,0,0,0,0,0],"split_type":[0,0,0,0,0,0,0,0,0,0,0,0,0,0,0],"sum_hessian":[4.65E2,3.02E2,1.63E2,6.9E1,2.33E2,1.4E2,2.3E1,1.4E1,5.5E1,1.18E2,1.15E2,8.8E1,5.2E1,1.9E1,4E0],"tree_param":{"num_deleted":"0","num_feature":"1177","num_nodes":"15","size_leaf_vector":"1"}},{"base_weights":[1.4333034E-1,-3.6706784E0,8.304882E0,-8.547614E0,-9.9165976E-1,6.5137124E0,2.1774817E1,-7.9734087E-1,-3.5790363E-1,-1.3012093E-1,5.0362673E-2,2.361207E-1,5.0952E-1,8.1838906E-1,1.830375E0],"categories":[],"categories_nodes":[],"categories_segments":[],"categories_sizes":[],"default_left":[0,0,0,0,0,0,0,0,0,0,0,0,0,0,0],"id":35,"left_children":[1,3,5,7,9,11,13,-1,-1,-1,-1,-1,-1,-1,-1],"loss_changes":[1.5345573E4,4.381499E3,3.6460938E3,1.1093496E3,7.045305E2,8.7392334E2,8.4443164E2,0E0,0E0,0E0,0E0,0E0,0E0,0E0,0E0],"parents":[2147483647,0,0,1,1,2,2,3,3,4,4,5,5,6,6],"right_children":[2,4,6,8,10,12,14,-1,-1,-1,-1,-1,-1,-1,-1],"split_conditions":[3.5873824E-1,-6.6520965E-1,2.0073998E0,-1.8811477E0,-6.790669E-2,1.1693636E0,3.0892658E0,-7.9734087E-1,-3.5790363E-1,-1.3012093E-1,5.0362673E-2,2.361207E-1,5.0952E-1,8.1838906E-1,1.830375E0],"split_indices":[1159,1159,1158,1159,1159,1159,1159,0,0,0,0,0,0,0,0],"split_type":[0,0,0,0,0,0,0,0,0,0,0,0,0,0,0],"sum_hessian":[4.91E2,3.35E2,1.56E2,1.18E2,2.17E2,1.39E2,1.7E1,1.7E1,1.01E2,1.2E2,9.7E1,9.5E1,4.4E1,1.4E1,3E0],"tree_param":{"num_deleted":"0","num_feature":"1177","num_nodes":"15","size_leaf_vector":"1"}},{"base_weights":[6.5668044E-3,-5.192662E0,5.4289103E0,-1.0842671E1,-3.28095E0,3.2256467E0,1.3853454E1,-8.339284E-1,-4.6126014E-1,-2.4429178E-1,-8.376496E-2,6.459191E-2,2.779232E-1,5.676537E-1,1.6543049E0],"categories":[],"categories_nodes":[],"categories_segments":[],"categories_sizes":[],"default_left":[0,0,0,0,0,0,0,0,0,0,0,0,0,0,0],"id":36,"left_children":[1,3,5,7,9,11,13,-1,-1,-1,-1,-1,-1,-1,-1],"loss_changes":[1.3419392E4,2.5891147E3,4.28014E3,4.2193896E2,4.63385E2,8.319064E2,1.9326387E3,0E0,0E0,0E0,0E0,0E0,0E0,0E0,0E0],"parents":[2147483647,0,0,1,1,2,2,3,3,4,4,5,5,6,6],"right_children":[2,4,6,8,10,12,14,-1,-1,-1,-1,-1,-1,-1,-1],"split_conditions":[-9.6356206E-2,-1.0697359E0,1.2760249E0,-1.987809E0,-5.372161E-1,4.0603328E-1,3.954159E0,-8.339284E-1,-4.6126014E-1,-2.4429178E-1,-8.376496E-2,6.459191E-2,2.779232E-1,5.676537E-1,1.6543049E0],"split_indices":[1158,1158,1159,1159,1159,1158,1158,0,0,0,0,0,0,0,0],"split_type":[0,0,0,0,0,0,0,0,0,0,0,0,0,0,0],"sum_hessian":[4.74E2,2.42E2,2.32E2,6E1,1.82E2,1.85E2,4.7E1,1.1E1,4.9E1,9E1,9.2E1,1.02E2,8.3E1,4.3E1,4E0],"tree_param":{"num_deleted":"0","num_feature":"1177","num_nodes":"15","size_leaf_vector":"1"}},{"base_weights":[-1.8089153E-1,-4.6965203E0,5.395593E0,-1.048322E1,-3.00817E0,3.7234843E0,1.587644E1,-8.0286247E-1,-4.35921E-1,-2.2622685E-1,-7.460194E-2,9.485394E-2,3.1023082E-1,6.636519E-1,1.2859083E0],"categories":[],"categories_nodes":[],"categories_segments":[],"categories_sizes":[],"default_left":[0,0,0,0,0,0,0,0,0,0,0,0,0,0,0],"id":37,"left_children":[1,3,5,7,9,11,13,-1,-1,-1,-1,-1,-1,-1,-1],"loss_changes":[1.1986475E4,2.5379683E3,3.6737349E3,4.403916E2,4.6454675E2,8.2656665E2,4.016792E2,0E0,0E0,0E0,0E0,0E0,0E0,0E0,0E0],"parents":[2147483647,0,0,1,1,2,2,3,3,4,4,5,5,6,6],"right_children":[2,4,6,8,10,12,14,-1,-1,-1,-1,-1,-1,-1,-1],"split_conditions":[-2.158176E-3,-1.0697359E0,1.567809E0,-1.987809E0,-5.0454766E-1,6.258287E-1,2.6199565E0,-8.0286247E-1,-4.35921E-1,-2.2622685E-1,-7.460194E-2,9.485394E-2,3.1023082E-1,6.636519E-1,1.2859083E0],"split_indices":[1158,1158,1158,1159,1158,1158,1159,0,0,0,0,0,0,0,0],"split_type":[0,0,0,0,0,0,0,0,0,0,0,0,0,0,0],"sum_hessian":[4.74E2,2.62E2,2.12E2,5.8E1,2.04E2,1.84E2,2.8E1,1.2E1,4.6E1,1.01E2,1.03E2,1.07E2,7.7E1,2.4E1,4E0],"tree_param":{"num_deleted":"0","num_feature":"1177","num_nodes":"15","size_leaf_vector":"1"}},{"base_weights":[-1.4788127E-1,-4.7861676E0,4.5497417E0,-9.710892E0,-3.0906436E0,2.8539891E0,1.2133973E1,-8.42515E-1,-4.2366847E-1,-2.3208795E-1,-1.0188496E-1,5.0378736E-2,2.498472E-1,4.887012E-1,9.472203E-1],"categories":[],"categories_nodes":[],"categories_segments":[],"categories_sizes":[],"default_left":[0,0,0,0,0,0,0,0,0,0,0,0,0,0,0],"id":38,"left_children":[1,3,5,7,9,11,13,-1,-1,-1,-1,-1,-1,-1,-1],"loss_changes":[1.0393302E4,1.9739844E3,3.0134224E3,3.961665E2,2.8452454E2,7.6653784E2,5.0594482E2,0E0,0E0,0E0,0E0,0E0,0E0,0E0,0E0],"parents":[2147483647,0,0,1,1,2,2,3,3,4,4,5,5,6,6],"right_children":[2,4,6,8,10,12,14,-1,-1,-1,-1,-1,-1,-1,-1],"split_conditions":[-6.790669E-2,-1.0705223E0,1.2760249E0,-1.6977227E0,-6.301451E-1,4.0603328E-1,2.384192E0,-8.42515E-1,-4.2366847E-1,-2.3208795E-1,-1.0188496E-1,5.0378736E-2,2.498472E-1,4.887012E-1,9.472203E-1],"split_indices":[1159,1159,1159,1158,1158,1158,1158,0,0,0,0,0,0,0,0],"split_type":[0,0,0,0,0,0,0,0,0,0,0,0,0,0,0],"sum_hessian":[4.75E2,2.39E2,2.36E2,6E1,1.79E2,1.94E2,4.2E1,7E0,5.3E1,7.1E1,1.08E2,1.05E2,8.9E1,3.3E1,9E0],"tree_param":{"num_deleted":"0","num_feature":"1177","num_nodes":"15","size_leaf_vector":"1"}},{"base_weights":[4.430845E-2,-2.7311883E0,6.8332596E0,-6.171557E0,-5.5824655E-1,5.3481E0,1.6390606E1,-4.8801738E-1,-2.4281001E-1,-8.42012E-2,4.357834E-2,1.802145E-1,3.8353753E-1,6.3339907E-1,1.266107E0],"categories":[],"categories_nodes":[],"categories_segments":[],"categories_sizes":[],"default_left":[0,0,0,0,0,0,0,0,0,0,0,0,0,0,0],"id":39,"left_children":[1,3,5,7,9,11,13,-1,-1,-1,-1,-1,-1,-1,-1],"loss_changes":[8.4413545E3,2.3738337E3,1.757585E3,5.332285E2,3.1695947E2,4.3408228E2,2.4444824E2,0E0,0E0,0E0,0E0,0E0,0E0,0E0,0E0],"parents":[2147483647,0,0,1,1,2,2,3,3,4,4,5,5,6,6],"right_children":[2,4,6,8,10,12,14,-1,-1,-1,-1,-1,-1,-1,-1],"split_conditions":[3.7463394E-1,-6.301451E-1,1.9132018E0,-1.1639339E0,-9.6356206E-2,9.987057E-1,3.0435781E0,-4.8801738E-1,-2.4281001E-1,-8.42012E-2,4.357834E-2,1.802145E-1,3.8353753E-1,6.3339907E-1,1.266107E0],"split_indices":[1158,1158,1158,1158,1158,1159,1158,0,0,0,0,0,0,0,0],"split_type":[0,0,0,0,0,0,0,0,0,0,0,0,0,0,0],"sum_hessian":[4.46E2,3.17E2,1.29E2,1.22E2,1.95E2,1.13E2,1.6E1,3.1E1,9.1E1,1.09E2,8.6E1,6.6E1,4.7E1,1.3E1,3E0],"tree_param":{"num_deleted":"0","num_feature":"1177","num_nodes":"15","size_leaf_vector":"1"}},{"base_weights":[5.4375157E-2,-2.6249506E0,6.8832254E0,-6.570633E0,-6.4923686E-1,5.2080855E0,1.3266809E1,-6.6612977E-1,-2.7798262E-1,-1.0269284E-1,4.056725E-2,2.0033555E-1,3.600027E-1,5.4198587E-1,9.3264145E-1],"categories":[],"categories_nodes":[],"categories_segments":[],"categories_sizes":[],"default_left":[0,0,0,0,0,0,0,0,0,0,0,0,0,0,0],"id":40,"left_children":[1,3,5,7,9,11,13,-1,-1,-1,-1,-1,-1,-1,-1],"loss_changes":[8.635821E3,2.638422E3,1.353127E3,6.9728076E2,4.673711E2,2.2721313E2,1.507622E2,0E0,0E0,0E0,0E0,0E0,0E0,0E0,0E0],"parents":[2147483647,0,0,1,1,2,2,3,3,4,4,5,5,6,6],"right_children":[2,4,6,8,10,12,14,-1,-1,-1,-1,-1,-1,-1,-1],"split_conditions":[4.653995E-1,-7.2434306E-1,1.7240021E0,-1.8811477E0,-1.1057119E-1,1.0968188E0,3.0435781E0,-6.6612977E-1,-2.7798262E-1,-1.0269284E-1,4.056725E-2,2.0033555E-1,3.600027E-1,5.4198587E-1,9.3264145E-1],"split_indices":[1159,1158,1159,1159,1159,1158,1158,0,0,0,0,0,0,0,0],"split_type":[0,0,0,0,0,0,0,0,0,0,0,0,0,0,0],"sum_hessian":[4.7E2,3.38E2,1.32E2,1.12E2,2.26E2,1.06E2,2.6E1,1.3E1,9.9E1,1.15E2,1.11E2,6.8E1,3.8E1,2E1,6E0],"tree_param":{"num_deleted":"0","num_feature":"1177","num_nodes":"15","size_leaf_vector":"1"}},{"base_weights":[2.3119919E-1,-2.457816E0,7.1326175E0,-7.7700543E0,-9.981722E-1,6.2668076E0,1.4108571E0,-7.4889374E-1,-3.334721E-1,-1.21880926E-1,3.1450156E-2,2.136364E-1,4.9076423E-1],"categories":[],"categories_nodes":[],"categories_segments":[],"categories_sizes":[],"default_left":[0,0,0,0,0,0,0,0,0,0,0,0,0],"id":41,"left_children":[1,3,5,7,9,11,-1,-1,-1,-1,-1,-1,-1],"loss_changes":[8.869706E3,2.6596118E3,2.2693628E3,4.871494E2,6.362781E2,8.779346E2,0E0,0E0,0E0,0E0,0E0,0E0,0E0],"parents":[2147483647,0,0,1,1,2,2,3,3,4,4,5,5],"right_children":[2,4,6,8,10,12,-1,-1,-1,-1,-1,-1,-1],"split_conditions":[4.653995E-1,-8.998644E-1,3.954159E0,-1.6977227E0,-2.533529E-1,1.3166143E0,1.4108571E0,-7.4889374E-1,-3.334721E-1,-1.21880926E-1,3.1450156E-2,2.136364E-1,4.9076423E-1],"split_indices":[1159,1159,1158,1158,1158,1158,0,0,0,0,0,0,0],"split_type":[0,0,0,0,0,0,0,0,0,0,0,0,0],"sum_hessian":[4.76E2,3.43E2,1.33E2,7.3E1,2.7E2,1.29E2,4E0,8E0,6.5E1,1.43E2,1.27E2,8.4E1,4.5E1],"tree_param":{"num_deleted":"0","num_feature":"1177","num_nodes":"13","size_leaf_vector":"1"}},{"base_weights":[5.4282907E-2,-2.8244557E0,5.633725E0,-6.6544504E0,-1.1577559E0,4.9950676E0,1.4805965E0,-5.0576806E-1,-2.7364346E-1,-1.3358492E-1,1.7937322E-3,1.6078661E-1,4.1505805E-1],"categories":[],"categories_nodes":[],"categories_segments":[],"categories_sizes":[],"default_left":[0,0,0,0,0,0,0,0,0,0,0,0,0],"id":42,"left_children":[1,3,5,7,9,11,-1,-1,-1,-1,-1,-1,-1],"loss_changes":[7.645246E3,1.9966997E3,2.3329321E3,3.3312793E2,3.9765524E2,9.086465E2,0E0,0E0,0E0,0E0,0E0,0E0,0E0],"parents":[2147483647,0,0,1,1,2,2,3,3,4,4,5,5],"right_children":[2,4,6,8,10,12,-1,-1,-1,-1,-1,-1,-1],"split_conditions":[2.8043592E-1,-9.1273916E-1,3.954159E0,-1.5398318E0,-3.4755096E-1,1.1596175E0,1.4805965E0,-5.0576806E-1,-2.7364346E-1,-1.3358492E-1,1.7937322E-3,1.6078661E-1,4.1505805E-1],"split_indices":[1158,1158,1158,1159,1158,1158,0,0,0,0,0,0,0],"split_type":[0,0,0,0,0,0,0,0,0,0,0,0,0],"sum_hessian":[4.74E2,3.13E2,1.61E2,9.4E1,2.19E2,1.58E2,3E0,2.2E1,7.2E1,9.6E1,1.23E2,1.04E2,5.4E1],"tree_param":{"num_deleted":"0","num_feature":"1177","num_nodes":"13","size_leaf_vector":"1"}},{"base_weights":[4.48824E-2,-2.2555497E0,6.416358E0,-5.7042494E0,-4.9174747E-1,5.645977E0,1.4250745E0,-5.3362453E-1,-2.3516206E-1,-8.637065E-2,3.3796772E-2,2.0685232E-1,5.0928795E-1],"categories":[],"categories_nodes":[],"categories_segments":[],"categories_sizes":[],"default_left":[0,0,0,0,0,0,0,0,0,0,0,0,0],"id":43,"left_children":[1,3,5,7,9,11,-1,-1,-1,-1,-1,-1,-1],"loss_changes":[6.96196E3,2.1201006E3,1.9828408E3,5.366482E2,3.359124E2,8.00438E2,0E0,0E0,0E0,0E0,0E0,0E0,0E0],"parents":[2147483647,0,0,1,1,2,2,3,3,4,4,5,5],"right_children":[2,4,6,8,10,12,-1,-1,-1,-1,-1,-1,-1],"split_conditions":[4.653995E-1,-6.8654186E-1,3.0892658E0,-1.5093267E0,-1.1057119E-1,1.567809E0,1.4250745E0,-5.3362453E-1,-2.3516206E-1,-8.637065E-2,3.3796772E-2,2.0685232E-1,5.0928795E-1],"split_indices":[1159,1159,1159,1158,1159,1158,0,0,0,0,0,0,0],"split_type":[0,0,0,0,0,0,0,0,0,0,0,0,0],"sum_hessian":[4.73E2,3.48E2,1.25E2,1.17E2,2.31E2,1.22E2,3E0,1.8E1,9.9E1,1.12E2,1.19E2,9.3E1,2.9E1],"tree_param":{"num_deleted":"0","num_feature":"1177","num_nodes":"13","size_leaf_vector":"1"}},{"base_weights":[1.5630014E-1,-2.2303083E0,6.4028983E0,-7.0951357E0,-9.722969E-1,4.9090714E0,1.6831182E1,-6.6941446E-1,-2.9981408E-1,-1.2801675E-1,7.972038E-3,1.7515552E-1,3.7219056E-1,5.9473765E-1,1.3716339E0],"categories":[],"categories_nodes":[],"categories_segments":[],"categories_sizes":[],"default_left":[0,0,0,0,0,0,0,0,0,0,0,0,0,0,0],"id":44,"left_children":[1,3,5,7,9,11,13,-1,-1,-1,-1,-1,-1,-1,-1],"loss_changes":[6.6335146E3,1.9637439E3,1.8334751E3,3.761267E2,4.6229962E2,3.6237158E2,4.5869824E2,0E0,0E0,0E0,0E0,0E0,0E0,0E0,0E0],"parents":[2147483647,0,0,1,1,2,2,3,3,4,4,5,5,6,6],"right_children":[2,4,6,8,10,12,14,-1,-1,-1,-1,-1,-1,-1,-1],"split_conditions":[4.653995E-1,-9.7553784E-1,2.384192E0,-1.6977227E0,-3.789503E-1,1.1906959E0,3.1532626E0,-6.6941446E-1,-2.9981408E-1,-1.2801675E-1,7.972038E-3,1.7515552E-1,3.7219056E-1,5.9473765E-1,1.3716339E0],"split_indices":[1159,1158,1158,1158,1158,1159,1159,0,0,0,0,0,0,0,0],"split_type":[0,0,0,0,0,0,0,0,0,0,0,0,0,0,0],"sum_hessian":[4.43E2,3.21E2,1.22E2,6.5E1,2.56E2,1.08E2,1.4E1,8E0,5.7E1,1.06E2,1.5E2,7.1E1,3.7E1,1.1E1,3E0],"tree_param":{"num_deleted":"0","num_feature":"1177","num_nodes":"15","size_leaf_vector":"1"}},{"base_weights":[3.199856E-2,-2.1231573E0,5.157962E0,-4.9526196E0,-4.4231668E-1,4.135712E0,1.40628E1,-3.7361732E-1,-1.785451E-1,-7.30144E-2,2.663109E-2,1.420366E-1,3.1397465E-1,5.498694E-1,1.0818425E0],"categories":[],"categories_nodes":[],"categories_segments":[],"categories_sizes":[],"default_left":[0,0,0,0,0,0,0,0,0,0,0,0,0,0,0],"id":45,"left_children":[1,3,5,7,9,11,13,-1,-1,-1,-1,-1,-1,-1,-1],"loss_changes":[5.225253E3,1.5815155E3,1.2162561E3,4.0502954E2,2.0919426E2,3.3473315E2,8.709717E1,0E0,0E0,0E0,0E0,0E0,0E0,0E0,0E0],"parents":[2147483647,0,0,1,1,2,2,3,3,4,4,5,5,6,6],"right_children":[2,4,6,8,10,12,14,-1,-1,-1,-1,-1,-1,-1,-1],"split_conditions":[3.7463394E-1,-6.301451E-1,1.979989E0,-1.1639339E0,-6.790669E-2,1.0968188E0,3.1532626E0,-3.7361732E-1,-1.785451E-1,-7.30144E-2,2.663109E-2,1.420366E-1,3.1397465E-1,5.498694E-1,1.0818425E0],"split_indices":[1158,1158,1159,1158,1159,1158,1159,0,0,0,0,0,0,0,0],"split_type":[0,0,0,0,0,0,0,0,0,0,0,0,0,0,0],"sum_hessian":[4.71E2,3.32E2,1.39E2,1.23E2,2.09E2,1.26E2,1.3E1,4.2E1,8.1E1,1.02E2,1.07E2,8E1,4.6E1,1.1E1,2E0],"tree_param":{"num_deleted":"0","num_feature":"1177","num_nodes":"15","size_leaf_vector":"1"}},{"base_weights":[1.1961964E-1,-1.860445E0,6.0753174E0,-4.343835E0,7.2084725E-2,5.356135E0,1.2796286E0,-3.449856E-1,-1.5483361E-1,-4.7260482E-2,5.296705E-2,1.8424343E-1,4.0732867E-1],"categories":[],"categories_nodes":[],"categories_segments":[],"categories_sizes":[],"default_left":[0,0,0,0,0,0,0,0,0,0,0,0,0],"id":46,"left_children":[1,3,5,7,9,11,-1,-1,-1,-1,-1,-1,-1],"loss_changes":[5.6717827E3,1.7328336E3,1.5472983E3,4.8227368E2,2.0588464E2,5.156184E2,0E0,0E0,0E0,0E0,0E0,0E0,0E0],"parents":[2147483647,0,0,1,1,2,2,3,3,4,4,5,5],"right_children":[2,4,6,8,10,12,-1,-1,-1,-1,-1,-1,-1],"split_conditions":[5.720607E-1,-4.5188716E-1,3.1532626E0,-1.1325345E0,-3.355752E-2,1.3166143E0,1.2796286E0,-3.449856E-1,-1.5483361E-1,-4.7260482E-2,5.296705E-2,1.8424343E-1,4.0732867E-1],"split_indices":[1159,1159,1159,1158,1158,1158,0,0,0,0,0,0,0],"split_type":[0,0,0,0,0,0,0,0,0,0,0,0,0],"sum_hessian":[4.79E2,3.6E2,1.19E2,1.57E2,2.03E2,1.16E2,3E0,5E1,1.07E2,1E2,1.03E2,7.4E1,4.2E1],"tree_param":{"num_deleted":"0","num_feature":"1177","num_nodes":"13","size_leaf_vector":"1"}},{"base_weights":[8.120199E-2,-2.053926E0,5.08211E0,-5.8160734E0,-8.640792E-1,3.8132362E0,1.3893367E1,-6.1619776E-1,-2.5221762E-1,-1.1943444E-1,4.118585E-3,1.1550347E-1,2.584874E-1,5.051641E-1,1.2316424E0],"categories":[],"categories_nodes":[],"categories_segments":[],"categories_sizes":[],"default_left":[0,0,0,0,0,0,0,0,0,0,0,0,0,0,0],"id":47,"left_children":[1,3,5,7,9,11,13,-1,-1,-1,-1,-1,-1,-1,-1],"loss_changes":[5.21042E3,1.525896E3,1.5793555E3,3.496599E2,3.7681146E2,2.510968E2,4.837915E2,0E0,0E0,0E0,0E0,0E0,0E0,0E0,0E0],"parents":[2147483647,0,0,1,1,2,2,3,3,4,4,5,5,6,6],"right_children":[2,4,6,8,10,12,14,-1,-1,-1,-1,-1,-1,-1,-1],"split_conditions":[3.7463394E-1,-8.998644E-1,1.979989E0,-1.6977227E0,-3.452259E-1,9.7122145E-1,3.1532626E0,-6.1619776E-1,-2.5221762E-1,-1.1943444E-1,4.118585E-3,1.1550347E-1,2.584874E-1,5.051641E-1,1.2316424E0],"split_indices":[1158,1159,1159,1158,1159,1158,1159,0,0,0,0,0,0,0,0],"split_type":[0,0,0,0,0,0,0,0,0,0,0,0,0,0,0],"sum_hessian":[4.86E2,3.41E2,1.45E2,8.1E1,2.6E2,1.28E2,1.7E1,7E0,7.4E1,9.9E1,1.61E2,6.2E1,6.6E1,1.4E1,3E0],"tree_param":{"num_deleted":"0","num_feature":"1177","num_nodes":"15","size_leaf_vector":"1"}},{"base_weights":[4.958812E-2,-2.4387004E0,3.7751758E0,-6.0435987E0,-1.4000248E0,2.8444834E0,1.1085262E1,-5.8923906E-1,-2.5577542E-1,-1.1767324E-1,-1.9032639E-2,8.873107E-2,2.5450152E-1,4.6070057E-1,9.620717E-1],"categories":[],"categories_nodes":[],"categories_segments":[],"categories_sizes":[],"default_left":[0,0,0,0,0,0,0,0,0,0,0,0,0,0,0],"id":48,"left_children":[1,3,5,7,9,11,13,-1,-1,-1,-1,-1,-1,-1,-1],"loss_changes":[4.375535E3,1.0511812E3,1.2543186E3,2.7540015E2,2.1389627E2,3.9697705E2,1.4321631E2,0E0,0E0,0E0,0E0,0E0,0E0,0E0,0E0],"parents":[2147483647,0,0,1,1,2,2,3,3,4,4,5,5,6,6],"right_children":[2,4,6,8,10,12,14,-1,-1,-1,-1,-1,-1,-1,-1],"split_conditions":[1.234392E-1,-1.04919E0,1.9132018E0,-1.6977227E0,-3.452259E-1,9.987057E-1,3.1532626E0,-5.8923906E-1,-2.5577542E-1,-1.1767324E-1,-1.9032639E-2,8.873107E-2,2.5450152E-1,4.6070057E-1,9.620717E-1],"split_indices":[1158,1159,1158,1158,1159,1159,1159,0,0,0,0,0,0,0,0],"split_type":[0,0,0,0,0,0,0,0,0,0,0,0,0,0,0],"sum_hessian":[4.7E2,2.82E2,1.88E2,6.2E1,2.2E2,1.68E2,2E1,7E0,5.5E1,1.13E2,1.07E2,1.15E2,5.3E1,1.8E1,2E0],"tree_param":{"num_deleted":"0","num_feature":"1177","num_nodes":"15","size_leaf_vector":"1"}},{"base_weights":[4.1671548E-2,-1.8577123E0,4.42558E0,-5.398881E0,-9.2584836E-1,3.4761143E0,1.1425874E1,-4.9194208E-1,-2.3336458E-1,-1.0368737E-1,8.52665E-3,1.005213E-1,2.3713656E-1,4.614656E-1,9.3000287E-1],"categories":[],"categories_nodes":[],"categories_segments":[],"categories_sizes":[],"default_left":[0,0,0,0,0,0,0,0,0,0,0,0,0,0,0],"id":49,"left_children":[1,3,5,7,9,11,13,-1,-1,-1,-1,-1,-1,-1,-1],"loss_changes":[4.0217031E3,1.1070634E3,9.3067725E2,1.8145508E2,3.3764102E2,2.3180566E2,9.622925E1,0E0,0E0,0E0,0E0,0E0,0E0,0E0,0E0],"parents":[2147483647,0,0,1,1,2,2,3,3,4,4,5,5,6,6],"right_children":[2,4,6,8,10,12,14,-1,-1,-1,-1,-1,-1,-1,-1],"split_conditions":[3.7463394E-1,-1.0065256E0,1.979989E0,-1.987809E0,-2.8122917E-1,9.7122145E-1,3.1532626E0,-4.9194208E-1,-2.3336458E-1,-1.0368737E-1,8.52665E-3,1.005213E-1,2.3713656E-1,4.614656E-1,9.3000287E-1],"split_indices":[1158,1159,1159,1159,1159,1158,1159,0,0,0,0,0,0,0,0],"split_type":[0,0,0,0,0,0,0,0,0,0,0,0,0,0,0],"sum_hessian":[4.81E2,3.36E2,1.45E2,6.9E1,2.67E2,1.29E2,1.6E1,8E0,6.1E1,1.3E2,1.37E2,6.1E1,6.8E1,1.4E1,2E0],"tree_param":{"num_deleted":"0","num_feature":"1177","num_nodes":"15","size_leaf_vector":"1"}},{"base_weights":[1.4607306E-1,-1.667081E0,4.815212E0,-4.122203E0,-3.7727603E-1,4.3474445E0,1.1740025E0,-4.1337696E-1,-1.7392458E-1,-5.661062E-2,3.796602E-2,1.4810635E-1,3.4491655E-1],"categories":[],"categories_nodes":[],"categories_segments":[],"categories_sizes":[],"default_left":[0,0,0,0,0,0,0,0,0,0,0,0,0],"id":50,"left_children":[1,3,5,7,9,11,-1,-1,-1,-1,-1,-1,-1],"loss_changes":[3.9954512E3,1.0750984E3,1.0503877E3,2.834442E2,1.9306471E2,4.3895874E2,0E0,0E0,0E0,0E0,0E0,0E0,0E0],"parents":[2147483647,0,0,1,1,2,2,3,3,4,4,5,5],"right_children":[2,4,6,8,10,12,-1,-1,-1,-1,-1,-1,-1],"split_conditions":[4.0603328E-1,-6.8654186E-1,1E0,-1.5721253E0,-9.6356206E-2,1.4253507E0,1.1740025E0,-4.1337696E-1,-1.7392458E-1,-5.661062E-2,3.796602E-2,1.4810635E-1,3.4491655E-1],"split_indices":[1158,1159,94,1158,1158,1159,0,0,0,0,0,0,0],"split_type":[0,0,0,0,0,0,0,0,0,0,0,0,0],"sum_hessian":[4.7E2,3.39E2,1.31E2,1.16E2,2.23E2,1.29E2,2E0,1.4E1,1.02E2,1.34E2,8.9E1,8.5E1,4.4E1],"tree_param":{"num_deleted":"0","num_feature":"1177","num_nodes":"13","size_leaf_vector":"1"}},{"base_weights":[-6.212973E-2,-1.4613869E0,4.5076756E0,-4.897552E0,-6.405538E-1,3.8445458E0,1.0808417E0,-4.3661958E-1,-2.1000186E-1,-7.88344E-2,2.6985457E-2,1.4794299E-1,3.533052E-1],"categories":[],"categories_nodes":[],"categories_segments":[],"categories_sizes":[],"default_left":[0,0,0,0,0,0,0,0,0,0,0,0,0],"id":51,"left_children":[1,3,5,7,9,11,-1,-1,-1,-1,-1,-1,-1],"loss_changes":[3.0822617E3,1.037634E3,1.1989453E3,1.5323865E2,3.3121143E2,2.9295422E2,0E0,0E0,0E0,0E0,0E0,0E0,0E0],"parents":[2147483647,0,0,1,1,2,2,3,3,4,4,5,5],"right_children":[2,4,6,8,10,12,-1,-1,-1,-1,-1,-1,-1],"split_conditions":[5.507285E-1,-9.7553784E-1,3.1532626E0,-1.987809E0,-1.1057119E-1,1.6386731E0,1.0808417E0,-4.3661958E-1,-2.1000186E-1,-7.88344E-2,2.6985457E-2,1.4794299E-1,3.533052E-1],"split_indices":[1159,1158,1159,1159,1159,1159,0,0,0,0,0,0,0],"split_type":[0,0,0,0,0,0,0,0,0,0,0,0,0],"sum_hessian":[4.8E2,3.68E2,1.12E2,7E1,2.98E2,1.09E2,3E0,9E0,6.1E1,1.66E2,1.32E2,8.7E1,2.2E1],"tree_param":{"num_deleted":"0","num_feature":"1177","num_nodes":"13","size_leaf_vector":"1"}},{"base_weights":[7.322305E-2,-1.4535592E0,4.4543686E0,-3.8189905E0,-3.0929908E-1,3.8721876E0,1.0403101E0,-4.4166738E-1,-1.6286528E-1,-5.603257E-2,2.5914429E-2,1.3785177E-1,3.1030077E-1],"categories":[],"categories_nodes":[],"categories_segments":[],"categories_sizes":[],"default_left":[0,0,0,0,0,0,0,0,0,0,0,0,0],"id":52,"left_children":[1,3,5,7,9,11,-1,-1,-1,-1,-1,-1,-1],"loss_changes":[3.183776E3,9.542728E2,1.0903604E3,2.951233E2,1.6106099E2,2.951985E2,0E0,0E0,0E0,0E0,0E0,0E0,0E0],"parents":[2147483647,0,0,1,1,2,2,3,3,4,4,5,5],"right_children":[2,4,6,8,10,12,-1,-1,-1,-1,-1,-1,-1],"split_conditions":[5.720607E-1,-7.2434306E-1,3.1532626E0,-1.5721253E0,-6.790669E-2,1.4253507E0,1.0403101E0,-4.4166738E-1,-1.6286528E-1,-5.603257E-2,2.5914429E-2,1.3785177E-1,3.1030077E-1],"split_indices":[1159,1158,1159,1158,1159,1159,0,0,0,0,0,0,0],"split_type":[0,0,0,0,0,0,0,0,0,0,0,0,0],"sum_hessian":[4.74E2,3.52E2,1.22E2,1.14E2,2.38E2,1.19E2,3E0,1E1,1.04E2,1.2E2,1.18E2,8.2E1,3.7E1],"tree_param":{"num_deleted":"0","num_feature":"1177","num_nodes":"13","size_leaf_vector":"1"}},{"base_weights":[8.7523066E-2,-1.1965946E0,4.950721E0,-3.6978383E0,-6.2069044E-2,4.2710156E0,1.0012983E0,-4.8542714E-1,-1.6135398E-1,-4.729421E-2,3.847221E-2,1.7690985E-1,3.624999E-1],"categories":[],"categories_nodes":[],"categories_segments":[],"categories_sizes":[],"default_left":[0,0,0,0,0,0,0,0,0,0,0,0,0],"id":53,"left_children":[1,3,5,7,9,11,-1,-1,-1,-1,-1,-1,-1],"loss_changes":[2.9597703E3,1.0639174E3,9.2889453E2,2.9973193E2,1.9106793E2,1.8392126E2,0E0,0E0,0E0,0E0,0E0,0E0,0E0],"parents":[2147483647,0,0,1,1,2,2,3,3,4,4,5,5],"right_children":[2,4,6,8,10,12,-1,-1,-1,-1,-1,-1,-1],"split_conditions":[7.5142604E-1,-6.8654186E-1,3.1532626E0,-1.6977227E0,-9.6356206E-2,1.9132018E0,1.0012983E0,-4.8542714E-1,-1.6135398E-1,-4.729421E-2,3.847221E-2,1.7690985E-1,3.624999E-1],"split_indices":[1158,1159,1159,1158,1158,1158,0,0,0,0,0,0,0],"split_type":[0,0,0,0,0,0,0,0,0,0,0,0,0],"sum_hessian":[4.72E2,3.74E2,9.8E1,1.16E2,2.58E2,9.5E1,3E0,7E0,1.09E2,1.25E2,1.33E2,7.8E1,1.7E1],"tree_param":{"num_deleted":"0","num_feature":"1177","num_nodes":"13","size_leaf_vector":"1"}},{"base_weights":[2.2453347E-2,-1.4741572E0,3.4634867E0,-4.626874E0,-7.908699E-1,2.710937E0,8.706153E0,-4.1418967E-1,-1.9937934E-1,-9.499931E-2,-2.8858637E-3,1.0173374E-1,2.2441863E-1,3.6996213E-1,7.730908E-1],"categories":[],"categories_nodes":[],"categories_segments":[],"categories_sizes":[],"default_left":[0,0,0,0,0,0,0,0,0,0,0,0,0,0,0],"id":54,"left_children":[1,3,5,7,9,11,13,-1,-1,-1,-1,-1,-1,-1,-1],"loss_changes":[2.4976511E3,7.2446423E2,5.563672E2,1.0723706E2,2.2675964E2,1.4712933E2,4.451709E1,0E0,0E0,0E0,0E0,0E0,0E0,0E0,0E0],"parents":[2147483647,0,0,1,1,2,2,3,3,4,4,5,5,6,6],"right_children":[2,4,6,8,10,12,14,-1,-1,-1,-1,-1,-1,-1,-1],"split_conditions":[3.800705E-1,-1.0383365E0,1.9446012E0,-1.6977227E0,-4.305549E-1,1.2760249E0,1E0,-4.1418967E-1,-1.9937934E-1,-9.499931E-2,-2.8858637E-3,1.0173374E-1,2.2441863E-1,3.6996213E-1,7.730908E-1],"split_indices":[1159,1158,1158,1158,1159,1159,94,0,0,0,0,0,0,0,0],"split_type":[0,0,0,0,0,0,0,0,0,0,0,0,0,0,0],"sum_hessian":[4.83E2,3.37E2,1.46E2,5.9E1,2.78E2,1.29E2,1.7E1,7E0,5.2E1,1.1E2,1.68E2,9.5E1,3.4E1,1.6E1,1E0],"tree_param":{"num_deleted":"0","num_feature":"1177","num_nodes":"15","size_leaf_vector":"1"}},{"base_weights":[7.746968E-2,-1.4362435E0,3.4214344E0,-4.393312E0,-7.278226E-1,2.9737134E0,9.39798E-1,-3.606699E-1,-1.8625593E-1,-8.1284374E-2,5.5126855E-3,1.16022065E-1,3.008301E-1],"categories":[],"categories_nodes":[],"categories_segments":[],"categories_sizes":[],"default_left":[0,0,0,0,0,0,0,0,0,0,0,0,0],"id":55,"left_children":[1,3,5,7,9,11,-1,-1,-1,-1,-1,-1,-1],"loss_changes":[2.404209E3,6.8181824E2,9.628639E2,9.1843994E1,1.9958624E2,2.7427478E2,0E0,0E0,0E0,0E0,0E0,0E0,0E0],"parents":[2147483647,0,0,1,1,2,2,3,3,4,4,5,5],"right_children":[2,4,6,8,10,12,-1,-1,-1,-1,-1,-1,-1],"split_conditions":[4.0140274E-1,-1.0383365E0,3.0892658E0,-1.987809E0,-3.789503E-1,1.5992084E0,9.39798E-1,-3.606699E-1,-1.8625593E-1,-8.1284374E-2,5.5126855E-3,1.16022065E-1,3.008301E-1],"split_indices":[1159,1158,1159,1159,1158,1158,0,0,0,0,0,0,0],"split_type":[0,0,0,0,0,0,0,0,0,0,0,0,0],"sum_hessian":[4.73E2,3.26E2,1.47E2,6.2E1,2.64E2,1.44E2,3E0,1E1,5.2E1,1.27E2,1.37E2,1.2E2,2.4E1],"tree_param":{"num_deleted":"0","num_feature":"1177","num_nodes":"13","size_leaf_vector":"1"}},{"base_weights":[1.9813625E-2,-1.4695871E0,3.0971196E0,-4.2772074E0,-7.5618845E-1,2.3399353E0,8.234405E0,-4.240395E-1,-1.8001585E-1,-7.288866E-2,-2.1470827E-3,7.184493E-2,1.7593877E-1,3.3323532E-1,7.1922815E-1],"categories":[],"categories_nodes":[],"categories_segments":[],"categories_sizes":[],"default_left":[0,0,0,0,0,0,0,0,0,0,0,0,0,0,0],"id":56,"left_children":[1,3,5,7,9,11,13,-1,-1,-1,-1,-1,-1,-1,-1],"loss_changes":[2.1220554E3,6.2168677E2,5.681028E2,1.4872449E2,1.2503818E2,1.3652716E2,8.755505E1,0E0,0E0,0E0,0E0,0E0,0E0,0E0,0E0],"parents":[2147483647,0,0,1,1,2,2,3,3,4,4,5,5,6,6],"right_children":[2,4,6,8,10,12,14,-1,-1,-1,-1,-1,-1,-1,-1],"split_conditions":[2.8043592E-1,-1.04919E0,2.0073998E0,-1.6977227E0,-3.789503E-1,1.0200379E0,3.954159E0,-4.240395E-1,-1.8001585E-1,-7.288866E-2,-2.1470827E-3,7.184493E-2,1.7593877E-1,3.3323532E-1,7.1922815E-1],"split_indices":[1158,1159,1158,1158,1158,1159,1158,0,0,0,0,0,0,0,0],"split_type":[0,0,0,0,0,0,0,0,0,0,0,0,0,0,0],"sum_hessian":[4.61E2,3.11E2,1.5E2,6.2E1,2.49E2,1.32E2,1.8E1,7E0,5.5E1,1.25E2,1.24E2,7.6E1,5.6E1,1.6E1,2E0],"tree_param":{"num_deleted":"0","num_feature":"1177","num_nodes":"15","size_leaf_vector":"1"}},{"base_weights":[9.751549E-2,-9.8034596E-1,4.2446637E0,-2.7914343E0,8.332128E-2,3.6459892E0,8.7758446E-1,-3.2398906E-1,-1.1504593E-1,-1.6985534E-2,5.7137948E-2,1.4585118E-1,3.223346E-1],"categories":[],"categories_nodes":[],"categories_segments":[],"categories_sizes":[],"default_left":[0,0,0,0,0,0,0,0,0,0,0,0,0],"id":57,"left_children":[1,3,5,7,9,11,-1,-1,-1,-1,-1,-1,-1],"loss_changes":[2.1453157E3,7.341892E2,7.24698E2,2.4018665E2,1.0839863E2,1.7719006E2,0E0,0E0,0E0,0E0,0E0,0E0,0E0],"parents":[2147483647,0,0,1,1,2,2,3,3,4,4,5,5],"right_children":[2,4,6,8,10,12,-1,-1,-1,-1,-1,-1,-1],"split_conditions":[7.828254E-1,-5.987457E-1,3.1532626E0,-1.5721253E0,2.947415E-1,1.9132018E0,8.7758446E-1,-3.2398906E-1,-1.1504593E-1,-1.6985534E-2,5.7137948E-2,1.4585118E-1,3.223346E-1],"split_indices":[1158,1158,1159,1158,1159,1158,0,0,0,0,0,0,0],"split_type":[0,0,0,0,0,0,0,0,0,0,0,0,0],"sum_hessian":[4.78E2,3.8E2,9.8E1,1.4E2,2.4E2,9.5E1,3E0,1.5E1,1.25E2,1.72E2,6.8E1,7.7E1,1.8E1],"tree_param":{"num_deleted":"0","num_feature":"1177","num_nodes":"13","size_leaf_vector":"1"}},{"base_weights":[1.796882E-1,-9.542028E-1,3.5507512E0,-3.9720042E0,-4.4636238E-1,3.0514374E0,8.4467524E-1,-3.4756324E-1,-1.6626756E-1,-5.590374E-2,2.4239147E-2,1.0160891E-1,2.3134004E-1],"categories":[],"categories_nodes":[],"categories_segments":[],"categories_sizes":[],"default_left":[0,0,0,0,0,0,0,0,0,0,0,0,0],"id":58,"left_children":[1,3,5,7,9,11,-1,-1,-1,-1,-1,-1,-1],"loss_changes":[1.77699E3,5.315585E2,7.279303E2,7.3211975E1,1.8755511E2,1.736477E2,0E0,0E0,0E0,0E0,0E0,0E0,0E0],"parents":[2147483647,0,0,1,1,2,2,3,3,4,4,5,5],"right_children":[2,4,6,8,10,12,-1,-1,-1,-1,-1,-1,-1],"split_conditions":[6.573897E-1,-1.0697359E0,3.1532626E0,-1.6977227E0,-6.790669E-2,1.3186893E0,8.4467524E-1,-3.4756324E-1,-1.6626756E-1,-5.590374E-2,2.4239147E-2,1.0160891E-1,2.3134004E-1],"split_indices":[1159,1158,1159,1158,1159,1159,0,0,0,0,0,0,0],"split_type":[0,0,0,0,0,0,0,0,0,0,0,0,0],"sum_hessian":[4.63E2,3.47E2,1.16E2,4.9E1,2.98E2,1.13E2,3E0,7E0,4.2E1,1.73E2,1.25E2,7E1,4.3E1],"tree_param":{"num_deleted":"0","num_feature":"1177","num_nodes":"13","size_leaf_vector":"1"}},{"base_weights":[-3.23489E-2,-1.3177702E0,2.571241E0,-4.274544E0,-8.309131E-1,1.9671443E0,7.8096523E0,-4.7952062E-1,-1.833248E-1,-7.646618E-2,-7.0766727E-3,5.5498727E-2,1.4893357E-1,3.095847E-1,6.378454E-1],"categories":[],"categories_nodes":[],"categories_segments":[],"categories_sizes":[],"default_left":[0,0,0,0,0,0,0,0,0,0,0,0,0,0,0],"id":59,"left_children":[1,3,5,7,9,11,13,-1,-1,-1,-1,-1,-1,-1,-1],"loss_changes":[1.5997689E3,4.5709668E2,4.8462952E2,1.10290405E2,1.326693E2,1.20681946E2,4.908435E1,0E0,0E0,0E0,0E0,0E0,0E0,0E0,0E0],"parents":[2147483647,0,0,1,1,2,2,3,3,4,4,5,5,6,6],"right_children":[2,4,6,8,10,12,14,-1,-1,-1,-1,-1,-1,-1,-1],"split_conditions":[2.8043592E-1,-1.1325345E0,1.979989E0,-1.7919208E0,-3.452259E-1,9.7122145E-1,3.1532626E0,-4.7952062E-1,-1.833248E-1,-7.646618E-2,-7.0766727E-3,5.5498727E-2,1.4893357E-1,3.095847E-1,6.378454E-1],"split_indices":[1158,1158,1159,1158,1159,1158,1159,0,0,0,0,0,0,0,0],"split_type":[0,0,0,0,0,0,0,0,0,0,0,0,0,0,0],"sum_hessian":[4.76E2,3.19E2,1.57E2,4.4E1,2.75E2,1.42E2,1.5E1,3E0,4.1E1,1.36E2,1.39E2,7.8E1,6.4E1,1.3E1,2E0],"tree_param":{"num_deleted":"0","num_feature":"1177","num_nodes":"15","size_leaf_vector":"1"}},{"base_weights":[-1.4810847E-1,-1.8039682E0,1.5153309E0,-4.260736E0,-1.2737247E0,8.780886E-1,4.2288795E0,-4.319364E-1,-1.78628E-1,-9.469577E-2,-4.0481992E-2,1.0049069E-2,7.5627975E-2,1.7035924E-1,2.994711E-1],"categories":[],"categories_nodes":[],"categories_segments":[],"categories_sizes":[],"default_left":[0,0,0,0,0,0,0,0,0,0,0,0,0,0,0],"id":60,"left_children":[1,3,5,7,9,11,13,-1,-1,-1,-1,-1,-1,-1,-1],"loss_changes":[1.3138386E3,3.0591492E2,4.0783337E2,9.567651E1,5.54552E1,8.303935E1,4.4691223E1,0E0,0E0,0E0,0E0,0E0,0E0,0E0,0E0],"parents":[2147483647,0,0,1,1,2,2,3,3,4,4,5,5,6,6],"right_children":[2,4,6,8,10,12,14,-1,-1,-1,-1,-1,-1,-1,-1],"split_conditions":[-6.790669E-2,-1.2267326E0,1.3186893E0,-1.7605214E0,-7.2434306E-1,3.432346E-1,1.979989E0,-4.319364E-1,-1.78628E-1,-9.469577E-2,-4.0481992E-2,1.0049069E-2,7.5627975E-2,1.7035924E-1,2.994711E-1],"split_indices":[1159,1158,1159,1158,1158,1158,1159,0,0,0,0,0,0,0,0],"split_type":[0,0,0,0,0,0,0,0,0,0,0,0,0,0,0],"sum_hessian":[4.75E2,2.38E2,2.37E2,4.1E1,1.97E2,1.93E2,4.4E1,4E0,3.7E1,8.3E1,1.14E2,9.4E1,9.9E1,3.2E1,1.2E1],"tree_param":{"num_deleted":"0","num_feature":"1177","num_nodes":"15","size_leaf_vector":"1"}},{"base_weights":[5.2013442E-2,-7.9207224E-1,3.3425696E0,-3.0683725E0,-1.8693371E-1,2.5781415E0,7.4514904E0,-4.14659E-1,-1.3446252E-1,-4.3463815E-2,2.4609596E-2,9.570336E-2,1.6745631E-1,2.8990874E-1,6.066015E-1],"categories":[],"categories_nodes":[],"categories_segments":[],"categories_sizes":[],"default_left":[0,0,0,0,0,0,0,0,0,0,0,0,0,0,0],"id":61,"left_children":[1,3,5,7,9,11,13,-1,-1,-1,-1,-1,-1,-1,-1],"loss_changes":[1.346963E3,5.311325E2,2.9174548E2,1.3814557E2,1.4222711E2,3.7108765E1,4.5732483E1,0E0,0E0,0E0,0E0,0E0,0E0,0E0,0E0],"parents":[2147483647,0,0,1,1,2,2,3,3,4,4,5,5,6,6],"right_children":[2,4,6,8,10,12,14,-1,-1,-1,-1,-1,-1,-1,-1],"split_conditions":[7.5142604E-1,-8.998644E-1,2.384192E0,-1.7605214E0,-6.790669E-2,1.3186893E0,3.954159E0,-4.14659E-1,-1.3446252E-1,-4.3463815E-2,2.4609596E-2,9.570336E-2,1.6745631E-1,2.8990874E-1,6.066015E-1],"split_indices":[1158,1159,1158,1158,1159,1159,1158,0,0,0,0,0,0,0,0],"split_type":[0,0,0,0,0,0,0,0,0,0,0,0,0,0,0],"sum_hessian":[4.83E2,3.85E2,9.8E1,8E1,3.05E2,8.4E1,1.4E1,4E0,7.6E1,1.52E2,1.53E2,4.7E1,3.7E1,1.2E1,2E0],"tree_param":{"num_deleted":"0","num_feature":"1177","num_nodes":"15","size_leaf_vector":"1"}},{"base_weights":[5.7038E-2,-9.8344857E-1,2.4390001E0,-2.9383755E0,-4.4992474E-1,1.8930684E0,7.4121423E0,-2.8711936E-1,-1.2193612E-1,-5.6435414E-2,-1.1977631E-3,5.5983532E-2,1.3611753E-1,2.8577957E-1,5.8638155E-1],"categories":[],"categories_nodes":[],"categories_segments":[],"categories_sizes":[],"default_left":[0,0,0,0,0,0,0,0,0,0,0,0,0,0,0],"id":62,"left_children":[1,3,5,7,9,11,13,-1,-1,-1,-1,-1,-1,-1,-1],"loss_changes":[1.1821168E3,3.44954E2,3.7964276E2,8.546924E1,7.572793E1,8.161203E1,3.546991E1,0E0,0E0,0E0,0E0,0E0,0E0,0E0,0E0],"parents":[2147483647,0,0,1,1,2,2,3,3,4,4,5,5,6,6],"right_children":[2,4,6,8,10,12,14,-1,-1,-1,-1,-1,-1,-1,-1],"split_conditions":[3.7463394E-1,-9.638611E-1,2.384192E0,-1.987809E0,-3.452259E-1,1.0200379E0,3.1532626E0,-2.8711936E-1,-1.2193612E-1,-5.6435414E-2,-1.1977631E-3,5.5983532E-2,1.3611753E-1,2.8577957E-1,5.8638155E-1],"split_indices":[1158,1159,1158,1159,1159,1159,1159,0,0,0,0,0,0,0,0],"split_type":[0,0,0,0,0,0,0,0,0,0,0,0,0,0,0],"sum_hessian":[4.75E2,3.31E2,1.44E2,7E1,2.61E2,1.31E2,1.3E1,9E0,6.1E1,1E2,1.61E2,6.9E1,6.2E1,1.1E1,2E0],"tree_param":{"num_deleted":"0","num_feature":"1177","num_nodes":"15","size_leaf_vector":"1"}},{"base_weights":[1.8803956E-2,-1.0166017E0,2.0632834E0,-3.1029346E0,-5.776883E-1,1.6312249E0,7.6888638E0,-3.013236E-1,-1.3408126E-1,-5.4795373E-2,-1.0990718E-3,5.009175E-2,1.3092323E-1,4.7778374E-1,2.2702877E-1],"categories":[],"categories_nodes":[],"categories_segments":[],"categories_sizes":[],"default_left":[0,0,0,0,0,0,0,0,0,0,0,0,0,0,0],"id":63,"left_children":[1,3,5,7,9,11,13,-1,-1,-1,-1,-1,-1,-1,-1],"loss_changes":[9.9490753E2,2.8391196E2,3.7148938E2,5.0351746E1,7.45622E1,8.933783E1,2.1261597E1,0E0,0E0,0E0,0E0,0E0,0E0,0E0,0E0],"parents":[2147483647,0,0,1,1,2,2,3,3,4,4,5,5,6,6],"right_children":[2,4,6,8,10,12,14,-1,-1,-1,-1,-1,-1,-1,-1],"split_conditions":[2.8043592E-1,-1.0697359E0,2.384192E0,-1.6977227E0,-3.789503E-1,1.0200379E0,1E0,-3.013236E-1,-1.3408126E-1,-5.4795373E-2,-1.0990718E-3,5.009175E-2,1.3092323E-1,4.7778374E-1,2.2702877E-1],"split_indices":[1158,1158,1158,1158,1158,1159,1176,0,0,0,0,0,0,0,0],"split_type":[0,0,0,0,0,0,0,0,0,0,0,0,0,0,0],"sum_hessian":[4.68E2,3.11E2,1.57E2,5.3E1,2.58E2,1.47E2,1E1,5E0,4.8E1,1.33E2,1.25E2,9.1E1,5.6E1,5E0,5E0],"tree_param":{"num_deleted":"0","num_feature":"1177","num_nodes":"15","size_leaf_vector":"1"}},{"base_weights":[-1.807405E-2,-8.4994656E-1,2.498491E0,-3.0788836E0,-3.7160683E-1,2.1313267E0,8.0537266E-1,-4.0772468E-1,-1.3477917E-1,-5.4315474E-2,3.6138513E-3,7.005986E-2,1.7341852E-1],"categories":[],"categories_nodes":[],"categories_segments":[],"categories_sizes":[],"default_left":[0,0,0,0,0,0,0,0,0,0,0,0,0],"id":64,"left_children":[1,3,5,7,9,11,-1,-1,-1,-1,-1,-1,-1],"loss_changes":[1.01117194E3,3.858825E2,5.652766E2,1.02529785E2,9.5252E1,1.10333496E2,0E0,0E0,0E0,0E0,0E0,0E0,0E0],"parents":[2147483647,0,0,1,1,2,2,3,3,4,4,5,5],"right_children":[2,4,6,8,10,12,-1,-1,-1,-1,-1,-1,-1],"split_conditions":[5.08064E-1,-1.0383365E0,1E0,-1.7919208E0,-3.452259E-1,1.4253507E0,8.0537266E-1,-4.0772468E-1,-1.3477917E-1,-5.4315474E-2,3.6138513E-3,7.005986E-2,1.7341852E-1],"split_indices":[1159,1158,94,1158,1159,1159,0,0,0,0,0,0,0],"split_type":[0,0,0,0,0,0,0,0,0,0,0,0,0],"sum_hessian":[4.81E2,3.62E2,1.19E2,6.3E1,2.99E2,1.17E2,2E0,3E0,6E1,1.14E2,1.85E2,7.7E1,4E1],"tree_param":{"num_deleted":"0","num_feature":"1177","num_nodes":"13","size_leaf_vector":"1"}},{"base_weights":[1.4289299E-1,-6.450242E-1,2.9901426E0,-2.7023542E0,-1.738251E-1,2.5301313E0,6.9289476E-1,-3.9243498E-1,-1.17738806E-1,-3.579351E-2,2.7034953E-2,1.0466182E-1,2.447723E-1],"categories":[],"categories_nodes":[],"categories_segments":[],"categories_sizes":[],"default_left":[0,0,0,0,0,0,0,0,0,0,0,0,0],"id":65,"left_children":[1,3,5,7,9,11,-1,-1,-1,-1,-1,-1,-1],"loss_changes":[1.0765159E3,3.6402917E2,4.8486377E2,1.0673105E2,1.192895E2,9.412543E1,0E0,0E0,0E0,0E0,0E0,0E0,0E0],"parents":[2147483647,0,0,1,1,2,2,3,3,4,4,5,5],"right_children":[2,4,6,8,10,12,-1,-1,-1,-1,-1,-1,-1],"split_conditions":[8.142248E-1,-9.638611E-1,3.1532626E0,-1.7919208E0,-9.6356206E-2,1.979989E0,6.9289476E-1,-3.9243498E-1,-1.17738806E-1,-3.579351E-2,2.7034953E-2,1.0466182E-1,2.447723E-1],"split_indices":[1158,1159,1159,1158,1158,1159,0,0,0,0,0,0,0],"split_type":[0,0,0,0,0,0,0,0,0,0,0,0,0],"sum_hessian":[4.78E2,3.75E2,1.03E2,6.9E1,3.06E2,1E2,3E0,3E0,6.6E1,1.74E2,1.32E2,8.6E1,1.4E1],"tree_param":{"num_deleted":"0","num_feature":"1177","num_nodes":"13","size_leaf_vector":"1"}},{"base_weights":[2.2512278E-2,-8.7124497E-1,2.1598723E0,-2.6777902E0,-3.7958187E-1,1.8690491E0,7.554301E-1,-3.7771866E-1,-1.180437E-1,-4.9791627E-2,1.5530078E-3,5.0839495E-2,1.4110598E-1],"categories":[],"categories_nodes":[],"categories_segments":[],"categories_sizes":[],"default_left":[0,0,0,0,0,0,0,0,0,0,0,0,0],"id":66,"left_children":[1,3,5,7,9,11,-1,-1,-1,-1,-1,-1,-1],"loss_changes":[9.264577E2,3.027519E2,5.102693E2,9.498419E1,6.8356705E1,1.1165958E2,0E0,0E0,0E0,0E0,0E0,0E0,0E0],"parents":[2147483647,0,0,1,1,2,2,3,3,4,4,5,5],"right_children":[2,4,6,8,10,12,-1,-1,-1,-1,-1,-1,-1],"split_conditions":[3.7463394E-1,-1.04919E0,1E0,-1.7919208E0,-3.452259E-1,1.0968188E0,7.554301E-1,-3.7771866E-1,-1.180437E-1,-4.9791627E-2,1.5530078E-3,5.0839495E-2,1.4110598E-1],"split_indices":[1158,1159,94,1158,1159,1158,0,0,0,0,0,0,0],"split_type":[0,0,0,0,0,0,0,0,0,0,0,0,0],"sum_hessian":[4.83E2,3.41E2,1.42E2,7.2E1,2.69E2,1.4E2,2E0,3E0,6.9E1,1.07E2,1.62E2,7.5E1,6.5E1],"tree_param":{"num_deleted":"0","num_feature":"1177","num_nodes":"13","size_leaf_vector":"1"}},{"base_weights":[1.0169868E-1,-5.463015E-1,2.8334634E0,-2.6037853E0,-1.7679285E-1,2.4095967E0,7.3024905E-1,-3.6355424E-1,-1.1119553E-1,-3.4110393E-2,2.363759E-2,9.8471925E-2,2.432596E-1],"categories":[],"categories_nodes":[],"categories_segments":[],"categories_sizes":[],"default_left":[0,0,0,0,0,0,0,0,0,0,0,0,0],"id":67,"left_children":[1,3,5,7,9,11,-1,-1,-1,-1,-1,-1,-1],"loss_changes":[8.4946606E2,2.9451978E2,4.2384705E2,8.84361E1,1.0865807E2,8.7694824E1,0E0,0E0,0E0,0E0,0E0,0E0,0E0],"parents":[2147483647,0,0,1,1,2,2,3,3,4,4,5,5],"right_children":[2,4,6,8,10,12,-1,-1,-1,-1,-1,-1,-1],"split_conditions":[8.456241E-1,-1.0383365E0,1E0,-1.7919208E0,-9.6356206E-2,2.384192E0,7.3024905E-1,-3.6355424E-1,-1.1119553E-1,-3.4110393E-2,2.363759E-2,9.8471925E-2,2.432596E-1],"split_indices":[1158,1158,94,1158,1158,1158,0,0,0,0,0,0,0],"split_type":[0,0,0,0,0,0,0,0,0,0,0,0,0],"sum_hessian":[4.78E2,3.87E2,9.1E1,5.8E1,3.29E2,8.9E1,2E0,3E0,5.5E1,1.85E2,1.44E2,7.7E1,1.2E1],"tree_param":{"num_deleted":"0","num_feature":"1177","num_nodes":"13","size_leaf_vector":"1"}},{"base_weights":[6.746536E-2,-5.822101E-1,2.6045575E0,-1.8450214E0,-2.3568397E-2,2.2093947E0,7.059072E-1,-3.234744E-1,-8.1004515E-2,-1.9908663E-2,2.4312077E-2,8.893624E-2,2.2716565E-1],"categories":[],"categories_nodes":[],"categories_segments":[],"categories_sizes":[],"default_left":[0,0,0,0,0,0,0,0,0,0,0,0,0],"id":68,"left_children":[1,3,5,7,9,11,-1,-1,-1,-1,-1,-1,-1],"loss_changes":[7.762111E2,2.6450366E2,4.055827E2,1.0914029E2,5.0038677E1,8.640265E1,0E0,0E0,0E0,0E0,0E0,0E0,0E0],"parents":[2147483647,0,0,1,1,2,2,3,3,4,4,5,5],"right_children":[2,4,6,8,10,12,-1,-1,-1,-1,-1,-1,-1],"split_conditions":[7.828254E-1,-6.6520965E-1,1E0,-1.7605214E0,2.9241167E-2,2.384192E0,7.059072E-1,-3.234744E-1,-8.1004515E-2,-1.9908663E-2,2.4312077E-2,8.893624E-2,2.2716565E-1],"split_indices":[1158,1159,94,1158,1158,1158,0,0,0,0,0,0,0],"split_type":[0,0,0,0,0,0,0,0,0,0,0,0,0],"sum_hessian":[4.69E2,3.74E2,9.5E1,1.14E2,2.6E2,9.3E1,2E0,4E0,1.1E2,1.5E2,1.1E2,8E1,1.3E1],"tree_param":{"num_deleted":"0","num_feature":"1177","num_nodes":"13","size_leaf_vector":"1"}},{"base_weights":[7.733631E-2,-5.837232E-1,2.5271494E0,-2.5040998E0,-2.444119E-1,2.1571667E0,6.823771E-1,-3.3779067E-1,-1.06444456E-1,-3.301984E-2,1.8098785E-2,9.011658E-2,2.3837419E-1],"categories":[],"categories_nodes":[],"categories_segments":[],"categories_sizes":[],"default_left":[0,0,0,0,0,0,0,0,0,0,0,0,0],"id":69,"left_children":[1,3,5,7,9,11,-1,-1,-1,-1,-1,-1,-1],"loss_changes":[7.545298E2,2.3852719E2,3.7788098E2,7.335843E1,7.91927E1,8.125192E1,0E0,0E0,0E0,0E0,0E0,0E0,0E0],"parents":[2147483647,0,0,1,1,2,2,3,3,4,4,5,5],"right_children":[2,4,6,8,10,12,-1,-1,-1,-1,-1,-1,-1],"split_conditions":[7.427187E-1,-1.0697359E0,1E0,-1.7919208E0,-2.5242202E-2,2.384192E0,6.823771E-1,-3.3779067E-1,-1.06444456E-1,-3.301984E-2,1.8098785E-2,9.011658E-2,2.3837419E-1],"split_indices":[1159,1158,94,1158,1159,1158,0,0,0,0,0,0,0],"split_type":[0,0,0,0,0,0,0,0,0,0,0,0,0],"sum_hessian":[4.64E2,3.66E2,9.8E1,5.4E1,3.12E2,9.6E1,2E0,3E0,5.1E1,1.85E2,1.27E2,8.6E1,1E1],"tree_param":{"num_deleted":"0","num_feature":"1177","num_nodes":"13","size_leaf_vector":"1"}},{"base_weights":[6.984251E-2,-6.240913E-1,2.1980984E0,-2.6393101E0,-3.0017748E-1,1.8488747E0,1.1688759E1,-3.251235E-1,-1.1271875E-1,-4.5152765E-2,4.481738E-3,7.019445E-2,1.738808E-1,1.7942886E-1,6.596314E-1],"categories":[],"categories_nodes":[],"categories_segments":[],"categories_sizes":[],"default_left":[0,0,0,0,0,0,0,0,0,0,0,0,0,0,0],"id":70,"left_children":[1,3,5,7,9,11,13,-1,-1,-1,-1,-1,-1,-1,-1],"loss_changes":[7.0879193E2,2.3550584E2,3.6948407E2,5.9694244E1,7.36388E1,7.846591E1,1.383667E0,0E0,0E0,0E0,0E0,0E0,0E0,0E0,0E0],"parents":[2147483647,0,0,1,1,2,2,3,3,4,4,5,5,6,6],"right_children":[2,4,6,8,10,12,14,-1,-1,-1,-1,-1,-1,-1,-1],"split_conditions":[6.360575E-1,-1.1325345E0,3.1532626E0,-1.7919208E0,-3.452259E-1,1.7562051E0,1E0,-3.251235E-1,-1.1271875E-1,-4.5152765E-2,4.481738E-3,7.019445E-2,1.738808E-1,1.7942886E-1,6.596314E-1],"split_indices":[1159,1158,1159,1158,1159,1158,94,0,0,0,0,0,0,0,0],"split_type":[0,0,0,0,0,0,0,0,0,0,0,0,0,0,0],"sum_hessian":[4.78E2,3.61E2,1.17E2,4.9E1,3.12E2,1.14E2,3E0,3E0,4.6E1,1.22E2,1.9E2,9.1E1,2.3E1,1E0,2E0],"tree_param":{"num_deleted":"0","num_feature":"1177","num_nodes":"15","size_leaf_vector":"1"}},{"base_weights":[2.6908556E-2,-4.236173E-1,2.8774722E0,-1.7310786E0,8.2071245E-2,2.3532195E0,6.3764346E-1,-2.1375576E-1,-6.9324456E-2,-1.5845142E-2,2.6319E-2,9.7678E-2,2.4033633E-1],"categories":[],"categories_nodes":[],"categories_segments":[],"categories_sizes":[],"default_left":[0,0,0,0,0,0,0,0,0,0,0,0,0],"id":71,"left_children":[1,3,5,7,9,11,-1,-1,-1,-1,-1,-1,-1],"loss_changes":[6.022492E2,2.6791522E2,3.013307E2,9.313385E1,5.2106243E1,5.1404938E1,0E0,0E0,0E0,0E0,0E0,0E0,0E0],"parents":[2147483647,0,0,1,1,2,2,3,3,4,4,5,5],"right_children":[2,4,6,8,10,12,-1,-1,-1,-1,-1,-1,-1],"split_conditions":[1.0413702E0,-7.2434306E-1,1E0,-1.987809E0,2.9241167E-2,2.150647E0,6.3764346E-1,-2.1375576E-1,-6.9324456E-2,-1.5845142E-2,2.6319E-2,9.7678E-2,2.4033633E-1],"split_indices":[1159,1158,94,1159,1158,1159,0,0,0,0,0,0,0],"split_type":[0,0,0,0,0,0,0,0,0,0,0,0,0],"sum_hessian":[4.67E2,4.04E2,6.3E1,1.12E2,2.92E2,6.1E1,2E0,1.2E1,1E2,1.54E2,1.38E2,5.4E1,7E0],"tree_param":{"num_deleted":"0","num_feature":"1177","num_nodes":"13","size_leaf_vector":"1"}},{"base_weights":[3.9979585E-2,-2.9456437E-1,3.3236845E0,-1.5428692E0,1.418989E-1,2.6014001E0,6.163885E-1,-1.4961812E-1,-5.673296E-2,-1.516725E-2,3.3882968E-2,9.815534E-2,1.9371384E-1],"categories":[],"categories_nodes":[],"categories_segments":[],"categories_sizes":[],"default_left":[0,0,0,0,0,0,0,0,0,0,0,0,0],"id":72,"left_children":[1,3,5,7,9,11,-1,-1,-1,-1,-1,-1,-1],"loss_changes":[5.2278723E2,2.3558948E2,2.540849E2,6.2874817E1,7.6778206E1,2.6518066E1,0E0,0E0,0E0,0E0,0E0,0E0,0E0],"parents":[2147483647,0,0,1,1,2,2,3,3,4,4,5,5],"right_children":[2,4,6,8,10,12,-1,-1,-1,-1,-1,-1,-1],"split_conditions":[1.3186893E0,-6.8654186E-1,1E0,-1.5398318E0,1.234392E-1,1.979989E0,6.163885E-1,-1.4961812E-1,-5.673296E-2,-1.516725E-2,3.3882968E-2,9.815534E-2,1.9371384E-1],"split_indices":[1159,1159,94,1159,1158,1159,0,0,0,0,0,0,0],"split_type":[0,0,0,0,0,0,0,0,0,0,0,0,0],"sum_hessian":[4.74E2,4.31E2,4.3E1,1.11E2,3.2E2,4.1E1,2E0,2.3E1,8.8E1,1.75E2,1.45E2,2.9E1,1.2E1],"tree_param":{"num_deleted":"0","num_feature":"1177","num_nodes":"13","size_leaf_vector":"1"}},{"base_weights":[-1.2415756E-2,-4.8020858E-1,1.9402457E0,-2.5117524E0,-2.692751E-1,1.4751589E0,5.6064425E0,-2.993048E-1,-1.0072531E-1,-4.1212562E-2,4.662656E-3,6.0518216E-2,1.4039354E-1,1.976593E-1,4.0731558E-1],"categories":[],"categories_nodes":[],"categories_segments":[],"categories_sizes":[],"default_left":[0,0,0,0,0,0,0,0,0,0,0,0,0,0,0],"id":73,"left_children":[1,3,5,7,9,11,13,-1,-1,-1,-1,-1,-1,-1,-1],"loss_changes":[4.3481622E2,1.6387555E2,1.4859882E2,5.0134735E1,7.029375E1,2.5891739E1,9.786652E0,0E0,0E0,0E0,0E0,0E0,0E0,0E0,0E0],"parents":[2147483647,0,0,1,1,2,2,3,3,4,4,5,5,6,6],"right_children":[2,4,6,8,10,12,14,-1,-1,-1,-1,-1,-1,-1,-1],"split_conditions":[7.828254E-1,-1.2267326E0,2.150647E0,-1.7919208E0,-3.452259E-1,1.7562051E0,3.1532626E0,-2.993048E-1,-1.0072531E-1,-4.1212562E-2,4.662656E-3,6.0518216E-2,1.4039354E-1,1.976593E-1,4.0731558E-1],"split_indices":[1158,1158,1159,1158,1159,1158,1159,0,0,0,0,0,0,0,0],"split_type":[0,0,0,0,0,0,0,0,0,0,0,0,0,0,0],"sum_hessian":[4.74E2,3.83E2,9.1E1,3.5E1,3.48E2,8.2E1,9E0,3E0,3.2E1,1.37E2,2.11E2,7E1,1.2E1,7E0,2E0],"tree_param":{"num_deleted":"0","num_feature":"1177","num_nodes":"15","size_leaf_vector":"1"}},{"base_weights":[8.4293485E-2,-3.607252E-1,2.3718662E0,-1.0864024E0,1.307055E-1,1.9693042E0,5.822647E-1,-1.19037785E-1,-4.258622E-2,-9.65668E-3,2.112052E-2,7.9446375E-2,1.9169356E-1],"categories":[],"categories_nodes":[],"categories_segments":[],"categories_sizes":[],"default_left":[0,0,0,0,0,0,0,0,0,0,0,0,0],"id":74,"left_children":[1,3,5,7,9,11,-1,-1,-1,-1,-1,-1,-1],"loss_changes":[4.8135748E2,1.4136353E2,2.6451788E2,4.6573227E1,2.2469893E1,4.7101074E1,0E0,0E0,0E0,0E0,0E0,0E0,0E0],"parents":[2147483647,0,0,1,1,2,2,3,3,4,4,5,5],"right_children":[2,4,6,8,10,12,-1,-1,-1,-1,-1,-1,-1],"split_conditions":[1.0200379E0,-4.305549E-1,1E0,-1.4545028E0,2.9241167E-2,2.384192E0,5.822647E-1,-1.19037785E-1,-4.258622E-2,-9.65668E-3,2.112052E-2,7.9446375E-2,1.9169356E-1],"split_indices":[1159,1159,94,1159,1158,1158,0,0,0,0,0,0,0],"split_type":[0,0,0,0,0,0,0,0,0,0,0,0,0],"sum_hessian":[4.71E2,3.95E2,7.6E1,1.59E2,2.36E2,7.4E1,2E0,2.3E1,1.36E2,1.12E2,1.24E2,6.3E1,1.1E1],"tree_param":{"num_deleted":"0","num_feature":"1177","num_nodes":"13","size_leaf_vector":"1"}},{"base_weights":[4.66334E-2,-3.2640946E-1,2.3707173E0,-1.2510967E0,3.5569813E-2,1.9374349E0,5.628561E-1,-1.1617456E-1,-4.8785165E-2,-1.3583926E-2,2.0049404E-2,7.575088E-2,1.650407E-1],"categories":[],"categories_nodes":[],"categories_segments":[],"categories_sizes":[],"default_left":[0,0,0,0,0,0,0,0,0,0,0,0,0],"id":75,"left_children":[1,3,5,7,9,11,-1,-1,-1,-1,-1,-1,-1],"loss_changes":[4.325313E2,1.4397308E2,2.4386234E2,3.3467926E1,3.4913925E1,3.358551E1,0E0,0E0,0E0,0E0,0E0,0E0,0E0],"parents":[2147483647,0,0,1,1,2,2,3,3,4,4,5,5],"right_children":[2,4,6,8,10,12,-1,-1,-1,-1,-1,-1,-1],"split_conditions":[1.0413702E0,-7.2434306E-1,1E0,-1.4545028E0,2.9241167E-2,1.979989E0,5.628561E-1,-1.1617456E-1,-4.8785165E-2,-1.3583926E-2,2.0049404E-2,7.575088E-2,1.650407E-1],"split_indices":[1159,1158,94,1159,1158,1159,0,0,0,0,0,0,0],"split_type":[0,0,0,0,0,0,0,0,0,0,0,0,0],"sum_hessian":[4.97E2,4.29E2,6.8E1,1.2E2,3.09E2,6.6E1,2E0,2.3E1,9.7E1,1.68E2,1.41E2,5.2E1,1.4E1],"tree_param":{"num_deleted":"0","num_feature":"1177","num_nodes":"13","size_leaf_vector":"1"}},{"base_weights":[2.334524E-2,-5.9768844E-1,1.192879E0,-2.27793E0,-3.8700995E-1,8.81744E-1,4.20396E0,-9.566E-2,-2.7045372E-1,-3.4826074E-2,1.0994247E-3,3.2750856E-2,8.294373E-2,1.5744981E-1,3.6870754E-1],"categories":[],"categories_nodes":[],"categories_segments":[],"categories_sizes":[],"default_left":[0,0,0,0,0,0,0,0,0,0,0,0,0,0,0],"id":76,"left_children":[1,3,5,7,9,11,13,-1,-1,-1,-1,-1,-1,-1,-1],"loss_changes":[3.4135693E2,1.07793594E2,1.4900014E2,2.8480118E1,3.47009E1,2.5166664E1,2.6945404E1,0E0,0E0,0E0,0E0,0E0,0E0,0E0,0E0],"parents":[2147483647,0,0,1,1,2,2,3,3,4,4,5,5,6,6],"right_children":[2,4,6,8,10,12,14,-1,-1,-1,-1,-1,-1,-1,-1],"split_conditions":[2.8043592E-1,-1.3478415E0,2.384192E0,1E0,-3.4755096E-1,1.3186893E0,3.1532626E0,-9.566E-2,-2.7045372E-1,-3.4826074E-2,1.0994247E-3,3.2750856E-2,8.294373E-2,1.5744981E-1,3.6870754E-1],"split_indices":[1158,1159,1158,212,1158,1159,1159,0,0,0,0,0,0,0,0],"split_type":[0,0,0,0,0,0,0,0,0,0,0,0,0,0,0],"sum_hessian":[4.68E2,3.06E2,1.62E2,3.3E1,2.73E2,1.48E2,1.4E1,3.1E1,2E0,1.55E2,1.18E2,1.16E2,3.2E1,1.2E1,2E0],"tree_param":{"num_deleted":"0","num_feature":"1177","num_nodes":"15","size_leaf_vector":"1"}},{"base_weights":[3.118987E-3,-6.238819E-2,5.318039E-1,-8.292388E-1,6.1032075E-1,-1.4428604E-1,-3.1423934E-2,1.8018138E-2,9.145986E-2],"categories":[],"categories_nodes":[],"categories_segments":[],"categories_sizes":[],"default_left":[0,0,0,0,0,0,0,0,0],"id":77,"left_children":[1,3,-1,5,7,-1,-1,-1,-1],"loss_changes":[3.4126923E2,2.5173346E2,0E0,9.2318375E1,7.855448E1,0E0,0E0,0E0,0E0],"parents":[2147483647,0,0,1,1,3,3,4,4],"right_children":[2,4,-1,6,8,-1,-1,-1,-1],"split_conditions":[1E0,-1.1057119E-1,5.318039E-1,-1.5093267E0,1.3186893E0,-1.4428604E-1,-3.1423934E-2,1.8018138E-2,9.145986E-2],"split_indices":[94,1159,0,1158,1159,0,0,0,0],"split_type":[0,0,0,0,0,0,0,0,0],"sum_hessian":[4.88E2,4.86E2,2E0,2.27E2,2.59E2,1.9E1,2.08E2,2.16E2,4.3E1],"tree_param":{"num_deleted":"0","num_feature":"1177","num_nodes":"9","size_leaf_vector":"1"}},{"base_weights":[2.0905552E-2,-3.39826E-1,1.4910514E0,-1.0080767E0,4.907496E-2,1.1397184E0,5.0375824E0,-1.5274255E-1,-4.2931125E-2,-5.4555427E-4,5.0481554E-2,1.5451546E-1,5.277418E-2,1.7770244E-1,3.8555795E-1],"categories":[],"categories_nodes":[],"categories_segments":[],"categories_sizes":[],"default_left":[0,0,0,0,0,0,0,0,0,0,0,0,0,0,0],"id":78,"left_children":[1,3,5,7,9,11,13,-1,-1,-1,-1,-1,-1,-1,-1],"loss_changes":[2.4763953E2,9.750572E1,1.088918E2,3.959108E1,1.37245655E1,1.0704376E1,4.324875E0,0E0,0E0,0E0,0E0,0E0,0E0,0E0,0E0],"parents":[2147483647,0,0,1,1,2,2,3,3,4,4,5,5,6,6],"right_children":[2,4,6,8,10,12,14,-1,-1,-1,-1,-1,-1,-1,-1],"split_conditions":[8.142248E-1,-5.6734633E-1,2.150647E0,-1.987809E0,7.6405096E-1,1.8808028E-1,1E0,-1.5274255E-1,-4.2931125E-2,-5.4555427E-4,5.0481554E-2,1.5451546E-1,5.277418E-2,1.7770244E-1,3.8555795E-1],"split_indices":[1158,1158,1159,1159,1159,1159,94,0,0,0,0,0,0,0,0],"split_type":[0,0,0,0,0,0,0,0,0,0,0,0,0,0,0],"sum_hessian":[4.65E2,3.74E2,9.1E1,1.37E2,2.37E2,8.4E1,7E0,8E0,1.29E2,2.24E2,1.3E1,2E0,8.2E1,6E0,1E0],"tree_param":{"num_deleted":"0","num_feature":"1177","num_nodes":"15","size_leaf_vector":"1"}},{"base_weights":[5.4677565E-2,-8.777834E-2,4.7416415E0,-8.4645057E-1,4.056721E-1,3.0257885E0,5.012253E-1,-1.0563085E-1,-3.109402E-2,4.579601E-3,5.5655666E-2,7.1531296E-2,1.6992755E-1],"categories":[],"categories_nodes":[],"categories_segments":[],"categories_sizes":[],"default_left":[0,0,0,0,0,0,0,0,0,0,0,0,0],"id":79,"left_children":[1,3,5,7,9,11,-1,-1,-1,-1,-1,-1,-1],"loss_changes":[3.1689926E2,1.7292665E2,9.65726E1,5.0436646E1,6.2112137E1,2.2733383E0,0E0,0E0,0E0,0E0,0E0,0E0,0E0],"parents":[2147483647,0,0,1,1,2,2,3,3,4,4,5,5],"right_children":[2,4,6,8,10,12,-1,-1,-1,-1,-1,-1,-1],"split_conditions":[2.384192E0,-3.452259E-1,1E0,-1.3209306E0,7.427187E-1,1.5259309E-1,5.012253E-1,-1.0563085E-1,-3.109402E-2,4.579601E-3,5.5655666E-2,7.1531296E-2,1.6992755E-1],"split_indices":[1158,1159,94,1158,1159,1155,0,0,0,0,0,0,0],"split_type":[0,0,0,0,0,0,0,0,0,0,0,0,0],"sum_hessian":[4.73E2,4.6E2,1.3E1,1.81E2,2.79E2,1.1E1,2E0,2.6E1,1.55E2,1.94E2,8.5E1,3E0,8E0],"tree_param":{"num_deleted":"0","num_feature":"1177","num_nodes":"13","size_leaf_vector":"1"}},{"base_weights":[-5.896356E-3,-1.3479528E-1,5.3029313E0,-1.0043517E0,2.820112E-1,3.251241E0,4.845179E-1,-2.5620362E-1,-4.414702E-2,-1.2106064E-3,4.3567862E-2,1.7212506E-1,4.302902E-2],"categories":[],"categories_nodes":[],"categories_segments":[],"categories_sizes":[],"default_left":[0,0,0,0,0,0,0,0,0,0,0,0,0],"id":80,"left_children":[1,3,5,7,9,11,-1,-1,-1,-1,-1,-1,-1],"loss_changes":[3.1754672E2,1.644671E2,6.751233E1,6.900232E1,5.542585E1,1.1525879E0,0E0,0E0,0E0,0E0,0E0,0E0,0E0],"parents":[2147483647,0,0,1,1,2,2,3,3,4,4,5,5],"right_children":[2,4,6,8,10,12,-1,-1,-1,-1,-1,-1,-1],"split_conditions":[2.150647E0,-5.6734633E-1,1E0,-1.7919208E0,5.720607E-1,1E0,4.845179E-1,-2.5620362E-1,-4.414702E-2,-1.2106064E-3,4.3567862E-2,1.7212506E-1,4.302902E-2],"split_indices":[1159,1158,94,1158,1159,95,0,0,0,0,0,0,0],"split_type":[0,0,0,0,0,0,0,0,0,0,0,0,0],"sum_hessian":[4.62E2,4.52E2,1E1,1.46E2,3.06E2,8E0,2E0,3E0,1.43E2,2.02E2,1.04E2,7E0,1E0],"tree_param":{"num_deleted":"0","num_feature":"1177","num_nodes":"13","size_leaf_vector":"1"}},{"base_weights":[2.5554312E-2,-5.157051E-1,8.530592E-1,-3.666637E0,-4.2448825E-1,6.258711E-1,3.6482053E0,-2.4659602E-1,-9.605414E-2,-5.293686E-2,-1.2046645E-2,1.9823756E-2,5.010953E-2,1.3418394E-1,3.1451213E-1],"categories":[],"categories_nodes":[],"categories_segments":[],"categories_sizes":[],"default_left":[0,0,0,0,0,0,0,0,0,0,0,0,0,0,0],"id":81,"left_children":[1,3,5,7,9,11,13,-1,-1,-1,-1,-1,-1,-1,-1],"loss_changes":[2.1408575E2,8.15074E1,1.1773622E2,8.194344E0,3.257529E1,1.4796066E1,1.879541E1,0E0,0E0,0E0,0E0,0E0,0E0,0E0,0E0],"parents":[2147483647,0,0,1,1,2,2,3,3,4,4,5,5,6,6],"right_children":[2,4,6,8,10,12,14,-1,-1,-1,-1,-1,-1,-1,-1],"split_conditions":[1.234392E-1,-1.6663234E0,2.384192E0,-1.7919208E0,-9.638611E-1,9.7122145E-1,3.1532626E0,-2.4659602E-1,-9.605414E-2,-5.293686E-2,-1.2046645E-2,1.9823756E-2,5.010953E-2,1.3418394E-1,3.1451213E-1],"split_indices":[1158,1158,1158,1158,1159,1158,1159,0,0,0,0,0,0,0,0],"split_type":[0,0,0,0,0,0,0,0,0,0,0,0,0,0,0],"sum_hessian":[4.76E2,2.88E2,1.88E2,7E0,2.81E2,1.75E2,1.3E1,3E0,4E0,6.2E1,2.19E2,1.1E2,6.5E1,1.1E1,2E0],"tree_param":{"num_deleted":"0","num_feature":"1177","num_nodes":"15","size_leaf_vector":"1"}},{"base_weights":[3.7439175E-2,-9.652568E-2,4.161061E0,-1.3917184E0,1.3441584E-1,2.6879144E0,4.578837E-1,-2.373487E-1,-5.853164E-2,-7.2611026E-3,4.0583644E-2,1.4078446E-1,2.8865432E-2],"categories":[],"categories_nodes":[],"categories_segments":[],"categories_sizes":[],"default_left":[0,0,0,0,0,0,0,0,0,0,0,0,0],"id":82,"left_children":[1,3,5,7,9,11,-1,-1,-1,-1,-1,-1,-1],"loss_changes":[2.633537E2,1.3837762E2,8.579608E1,4.6368958E1,7.454685E1,1.8803558E0,0E0,0E0,0E0,0E0,0E0,0E0,0E0],"parents":[2147483647,0,0,1,1,2,2,3,3,4,4,5,5],"right_children":[2,4,6,8,10,12,-1,-1,-1,-1,-1,-1,-1],"split_conditions":[1.8733279E0,-9.638611E-1,1E0,-1.7919208E0,4.653995E-1,1E0,4.578837E-1,-2.373487E-1,-5.853164E-2,-7.2611026E-3,4.0583644E-2,1.4078446E-1,2.8865432E-2],"split_indices":[1159,1159,94,1158,1159,119,0,0,0,0,0,0,0],"split_type":[0,0,0,0,0,0,0,0,0,0,0,0,0],"sum_hessian":[4.75E2,4.61E2,1.4E1,6.9E1,3.92E2,1.2E1,2E0,3E0,6.6E1,2.78E2,1.14E2,1.1E1,1E0],"tree_param":{"num_deleted":"0","num_feature":"1177","num_nodes":"13","size_leaf_vector":"1"}},{"base_weights":[3.9124765E-2,-8.561987E-2,3.9701304E0,-7.253236E-1,3.351841E-1,2.5380542E0,4.4262084E-1,-1.5822199E-1,-2.9250404E-2,4.89165E-3,4.622371E-2,6.004364E-2,1.4994635E-1],"categories":[],"categories_nodes":[],"categories_segments":[],"categories_sizes":[],"default_left":[0,0,0,0,0,0,0,0,0,0,0,0,0],"id":83,"left_children":[1,3,5,7,9,11,-1,-1,-1,-1,-1,-1,-1],"loss_changes":[2.3915102E2,1.27569916E2,8.2409195E1,6.249102E1,3.9911983E1,4.410187E0,0E0,0E0,0E0,0E0,0E0,0E0,0E0],"parents":[2147483647,0,0,1,1,2,2,3,3,4,4,5,5],"right_children":[2,4,6,8,10,12,-1,-1,-1,-1,-1,-1,-1],"split_conditions":[2.384192E0,-3.789503E-1,1E0,-1.6663234E0,8.142248E-1,2.492505E-1,4.4262084E-1,-1.5822199E-1,-2.9250404E-2,4.89165E-3,4.622371E-2,6.004364E-2,1.4994635E-1],"split_indices":[1158,1158,94,1158,1158,1155,0,0,0,0,0,0,0],"split_type":[0,0,0,0,0,0,0,0,0,0,0,0,0],"sum_hessian":[4.86E2,4.72E2,1.4E1,1.87E2,2.85E2,1.2E1,2E0,9E0,1.78E2,2.04E2,8.1E1,4E0,8E0],"tree_param":{"num_deleted":"0","num_feature":"1177","num_nodes":"13","size_leaf_vector":"1"}},{"base_weights":[-9.319114E-4,-3.8282284E-1,9.1452956E-1,-2.415301E0,-2.7432922E-1,7.2652334E-1,3.949318E0,-2.225148E-1,-8.3067626E-2,-2.9560406E-2,-4.052314E-4,2.5924712E-2,6.39211E-2,1.2045149E-1,2.8567275E-1],"categories":[],"categories_nodes":[],"categories_segments":[],"categories_sizes":[],"default_left":[0,0,0,0,0,0,0,0,0,0,0,0,0,0,0],"id":84,"left_children":[1,3,5,7,9,11,13,-1,-1,-1,-1,-1,-1,-1,-1],"loss_changes":[1.6746199E2,7.387012E1,7.757957E1,1.8689278E1,2.7159437E1,1.4721809E1,7.974373E0,0E0,0E0,0E0,0E0,0E0,0E0,0E0,0E0],"parents":[2147483647,0,0,1,1,2,2,3,3,4,4,5,5,6,6],"right_children":[2,4,6,8,10,12,14,-1,-1,-1,-1,-1,-1,-1,-1],"split_conditions":[4.0140274E-1,-1.8811477E0,2.150647E0,-1.7919208E0,-4.0922266E-1,1.4253507E0,3.0892658E0,-2.225148E-1,-8.3067626E-2,-2.9560406E-2,-4.052314E-4,2.5924712E-2,6.39211E-2,1.2045149E-1,2.8567275E-1],"split_indices":[1159,1159,1159,1158,1159,1159,1159,0,0,0,0,0,0,0,0],"split_type":[0,0,0,0,0,0,0,0,0,0,0,0,0,0,0],"sum_hessian":[4.77E2,3.37E2,1.4E2,1.6E1,3.21E2,1.33E2,7E0,3E0,1.3E1,1.46E2,1.75E2,9.8E1,3.5E1,5E0,2E0],"tree_param":{"num_deleted":"0","num_feature":"1177","num_nodes":"15","size_leaf_vector":"1"}},{"base_weights":[4.956758E-2,-7.592536E-2,3.760854E0,-1.2497544E0,1.10740006E-1,2.408628E0,4.183441E-1,-2.1417049E-1,-5.0949465E-2,-3.1876005E-3,4.0936537E-2,1.391758E-1,4.3462563E-2],"categories":[],"categories_nodes":[],"categories_segments":[],"categories_sizes":[],"default_left":[0,0,0,0,0,0,0,0,0,0,0,0,0],"id":85,"left_children":[1,3,5,7,9,11,-1,-1,-1,-1,-1,-1,-1],"loss_changes":[2.1359459E2,9.7424675E1,7.327318E1,3.833902E1,4.7491066E1,5.0826416E0,0E0,0E0,0E0,0E0,0E0,0E0,0E0],"parents":[2147483647,0,0,1,1,2,2,3,3,4,4,5,5],"right_children":[2,4,6,8,10,12,-1,-1,-1,-1,-1,-1,-1],"split_conditions":[2.384192E0,-1.0069371E0,1E0,-1.7919208E0,7.427187E-1,1E0,4.183441E-1,-2.1417049E-1,-5.0949465E-2,-3.1876005E-3,4.0936537E-2,1.391758E-1,4.3462563E-2],"split_indices":[1158,1158,94,1158,1159,1108,0,0,0,0,0,0,0],"split_type":[0,0,0,0,0,0,0,0,0,0,0,0,0],"sum_hessian":[4.57E2,4.43E2,1.4E1,6E1,3.83E2,1.2E1,2E0,3E0,5.7E1,3.08E2,7.5E1,9E0,3E0],"tree_param":{"num_deleted":"0","num_feature":"1177","num_nodes":"13","size_leaf_vector":"1"}},{"base_weights":[5.0817806E-2,-6.7768646E-3,7.035866E0,-5.2793634E-1,4.9964038E-1,9.698792E-2,4.0439913E-1,-2.0613909E-1,-2.3251815E-2,1.2902173E-2,6.160414E-2],"categories":[],"categories_nodes":[],"categories_segments":[],"categories_sizes":[],"default_left":[0,0,0,0,0,0,0,0,0,0,0],"id":86,"left_children":[1,3,5,7,9,-1,-1,-1,-1,-1,-1],"loss_changes":[1.9677313E2,1.2853091E2,5.7580566E0,5.235061E1,4.339014E1,0E0,0E0,0E0,0E0,0E0,0E0],"parents":[2147483647,0,0,1,1,2,2,3,3,4,4],"right_children":[2,4,6,8,10,-1,-1,-1,-1,-1,-1],"split_conditions":[3.954159E0,-1.5915489E-1,1E0,-1.7919208E0,1.105367E0,9.698792E-2,4.0439913E-1,-2.0613909E-1,-2.3251815E-2,1.2902173E-2,6.160414E-2],"split_indices":[1158,1158,94,1158,1159,0,0,0,0,0,0],"split_type":[0,0,0,0,0,0,0,0,0,0,0],"sum_hessian":[4.88E2,4.85E2,3E0,2.39E2,2.46E2,1E0,2E0,3E0,2.36E2,1.86E2,6E1],"tree_param":{"num_deleted":"0","num_feature":"1177","num_nodes":"11","size_leaf_vector":"1"}},{"base_weights":[4.8375867E-2,